<?xml version="1.0"?>
<MethodSetup Method="BDT::BDTD">
  <GeneralInfo>
    <Info name="TMVA Release" value="4.2.1 [262657]"/>
    <Info name="ROOT Release" value="6.32/10 [401418]"/>
    <Info name="Creator" value="mathew"/>
    <Info name="Date" value="Mon Mar  3 21:52:35 2025"/>
    <Info name="Host" value="Linux julia 5.15.167.4-microsoft-standard-WSL2 #1 SMP Tue Nov 5 00:21:55 UTC 2024 x86_64 x86_64 x86_64 GNU/Linux"/>
    <Info name="Dir" value="/home/mathew/COSI/COSItools/megalib/resource/examples/advanced/GeDSSDElectronTracking"/>
    <Info name="Training events" value="21818"/>
    <Info name="TrainingTime" value="4.98217916e+00"/>
    <Info name="AnalysisType" value="Regression"/>
  </GeneralInfo>
  <Options>
    <Option name="V" modified="Yes">False</Option>
    <Option name="VerbosityLevel" modified="No">Default</Option>
    <Option name="VarTransform" modified="No">None</Option>
    <Option name="H" modified="Yes">False</Option>
    <Option name="CreateMVAPdfs" modified="No">False</Option>
    <Option name="IgnoreNegWeightsInTraining" modified="No">False</Option>
    <Option name="NTrees" modified="Yes">400</Option>
    <Option name="MaxDepth" modified="Yes">3</Option>
    <Option name="MinNodeSize" modified="Yes">5%</Option>
    <Option name="nCuts" modified="Yes">20</Option>
    <Option name="BoostType" modified="Yes">Grad</Option>
    <Option name="AdaBoostR2Loss" modified="No">quadratic</Option>
    <Option name="UseBaggedBoost" modified="No">False</Option>
    <Option name="Shrinkage" modified="No">1.000000e+00</Option>
    <Option name="AdaBoostBeta" modified="No">5.000000e-01</Option>
    <Option name="UseRandomisedTrees" modified="No">False</Option>
    <Option name="UseNvars" modified="No">3</Option>
    <Option name="UsePoissonNvars" modified="No">True</Option>
    <Option name="BaggedSampleFraction" modified="No">6.000000e-01</Option>
    <Option name="UseYesNoLeaf" modified="No">False</Option>
    <Option name="NegWeightTreatment" modified="No">pray</Option>
    <Option name="Css" modified="No">1.000000e+00</Option>
    <Option name="Cts_sb" modified="No">1.000000e+00</Option>
    <Option name="Ctb_ss" modified="No">1.000000e+00</Option>
    <Option name="Cbb" modified="No">1.000000e+00</Option>
    <Option name="NodePurityLimit" modified="No">5.000000e-01</Option>
    <Option name="SeparationType" modified="Yes">giniindex</Option>
    <Option name="RegressionLossFunctionBDTG" modified="No">huber</Option>
    <Option name="HuberQuantile" modified="No">7.000000e-01</Option>
    <Option name="DoBoostMonitor" modified="No">False</Option>
    <Option name="UseFisherCuts" modified="No">False</Option>
    <Option name="MinLinCorrForFisher" modified="No">8.000000e-01</Option>
    <Option name="UseExclusiveVars" modified="No">False</Option>
    <Option name="DoPreselection" modified="No">False</Option>
    <Option name="SigToBkgFraction" modified="No">1.000000e+00</Option>
    <Option name="PruneMethod" modified="No">nopruning</Option>
    <Option name="PruneStrength" modified="No">0.000000e+00</Option>
    <Option name="PruningValFraction" modified="No">5.000000e-01</Option>
    <Option name="SkipNormalization" modified="No">False</Option>
    <Option name="nEventsMin" modified="No">0</Option>
    <Option name="UseBaggedGrad" modified="No">False</Option>
    <Option name="GradBaggingFraction" modified="No">6.000000e-01</Option>
    <Option name="UseNTrainEvents" modified="No">0</Option>
    <Option name="NNodesMax" modified="No">0</Option>
  </Options>
  <Variables NVar="6">
    <Variable VarIndex="0" Expression="XStripID1" Label="XStripID1" Title="XStripID1" Unit="" Internal="XStripID1" Type="F" Min="0.00000000e+00" Max="6.20000000e+01"/>
    <Variable VarIndex="1" Expression="XStripID2" Label="XStripID2" Title="XStripID2" Unit="" Internal="XStripID2" Type="F" Min="1.00000000e+00" Max="6.30000000e+01"/>
    <Variable VarIndex="2" Expression="YStripID1" Label="YStripID1" Title="YStripID1" Unit="" Internal="YStripID1" Type="F" Min="0.00000000e+00" Max="6.30000000e+01"/>
    <Variable VarIndex="3" Expression="XStripEnergy1" Label="XStripEnergy1" Title="XStripEnergy1" Unit="" Internal="XStripEnergy1" Type="F" Min="2.88757992e+00" Max="6.98734863e+03"/>
    <Variable VarIndex="4" Expression="XStripEnergy2" Label="XStripEnergy2" Title="XStripEnergy2" Unit="" Internal="XStripEnergy2" Type="F" Min="2.88420010e+00" Max="7.28201807e+03"/>
    <Variable VarIndex="5" Expression="YStripEnergy1" Label="YStripEnergy1" Title="YStripEnergy1" Unit="" Internal="YStripEnergy1" Type="F" Min="1.96939907e+01" Max="9.00636035e+03"/>
  </Variables>
  <Spectators NSpec="6">
    <Spectator SpecIndex="0" Expression="SimulationID" Label="SimulationID" Title="F" Unit="" Internal="SimulationID" Type="F" Min="7.00000000e+01" Max="9.99932000e+05"/>
    <Spectator SpecIndex="1" Expression="ResultPositionX" Label="ResultPositionX" Title="F" Unit="" Internal="ResultPositionX" Type="F" Min="-3.97373009e+00" Max="3.94408011e+00"/>
    <Spectator SpecIndex="2" Expression="ResultDirectionX" Label="ResultDirectionX" Title="F" Unit="" Internal="ResultDirectionX" Type="F" Min="-9.99939978e-01" Max="9.99890029e-01"/>
    <Spectator SpecIndex="3" Expression="ResultDirectionY" Label="ResultDirectionY" Title="F" Unit="" Internal="ResultDirectionY" Type="F" Min="-9.99790013e-01" Max="9.99759972e-01"/>
    <Spectator SpecIndex="4" Expression="ResultPositionZ" Label="ResultPositionZ" Title="F" Unit="" Internal="ResultPositionZ" Type="F" Min="-7.49989986e-01" Max="7.49899983e-01"/>
    <Spectator SpecIndex="5" Expression="ResultDirectionZ" Label="ResultDirectionZ" Title="F" Unit="" Internal="ResultDirectionZ" Type="F" Min="-9.99960005e-01" Max="9.99899983e-01"/>
  </Spectators>
  <Classes NClass="1">
    <Class Name="Regression" Index="0"/>
  </Classes>
  <Targets NTrgt="1">
    <Target TargetIndex="0" Expression="ResultPositionY" Label="ResultPositionY" Title="F" Unit="" Internal="ResultPositionY" Type="F" Min="-3.99884009e+00" Max="3.99162006e+00"/>
  </Targets>
  <Transformations NTransformations="0"/>
  <MVAPdfs/>
  <Weights NTrees="400" AnalysisType="1">
    <BinaryTree type="DecisionTree" boostWeight="1.7800000496208668e-03" itree="0">
      <Node pos="s" depth="0" NCoef="0" IVar="2" Cut="3.3000000000000000e+01" cType="1" res="4.9196835607290268e-03" rms="2.0924100875854492e+00" purity="1.0000000000000000e+00" nType="0">
        <Node pos="l" depth="1" NCoef="0" IVar="2" Cut="1.6761905670166016e+01" cType="1" res="-1.8113940954208374e+00" rms="9.7854995727539062e-01" purity="1.0000000000000000e+00" nType="0">
          <Node pos="l" depth="2" NCoef="0" IVar="2" Cut="1.0666666984558105e+01" cType="1" res="-2.5756635665893555e+00" rms="3.5447525978088379e-01" purity="1.0000000000000000e+00" nType="0">
            <Node pos="l" depth="3" NCoef="0" IVar="-1" Cut="0.0000000000000000e+00" cType="1" res="-3.1636776924133301e+00" rms="1.2424031645059586e-01" purity="1.0000000000000000e+00" nType="-99"/>
            <Node pos="r" depth="3" NCoef="0" IVar="-1" Cut="0.0000000000000000e+00" cType="1" res="-2.0899112224578857e+00" rms="2.0053103566169739e-01" purity="1.0000000000000000e+00" nType="-99"/>
          </Node>
          <Node pos="r" depth="2" NCoef="0" IVar="2" Cut="2.4142856597900391e+01" cType="1" res="-8.1749892234802246e-01" rms="5.4035508632659912e-01" purity="1.0000000000000000e+00" nType="0">
            <Node pos="l" depth="3" NCoef="0" IVar="-1" Cut="0.0000000000000000e+00" cType="1" res="-1.2842923402786255e+00" rms="2.6285624504089355e-01" purity="1.0000000000000000e+00" nType="-99"/>
            <Node pos="r" depth="3" NCoef="0" IVar="-1" Cut="0.0000000000000000e+00" cType="1" res="-3.4376141428947449e-01" rms="2.6948982477188110e-01" purity="1.0000000000000000e+00" nType="-99"/>
          </Node>
        </Node>
        <Node pos="r" depth="1" NCoef="0" IVar="2" Cut="4.7285713195800781e+01" cType="1" res="1.9267753362655640e+00" rms="9.0185552835464478e-01" purity="1.0000000000000000e+00" nType="0">
          <Node pos="l" depth="2" NCoef="0" IVar="2" Cut="3.9666667938232422e+01" cType="1" res="9.9906307458877563e-01" rms="5.0191354751586914e-01" purity="1.0000000000000000e+00" nType="0">
            <Node pos="l" depth="3" NCoef="0" IVar="-1" Cut="0.0000000000000000e+00" cType="1" res="5.1662260293960571e-01" rms="2.3635457456111908e-01" purity="1.0000000000000000e+00" nType="-99"/>
            <Node pos="r" depth="3" NCoef="0" IVar="-1" Cut="0.0000000000000000e+00" cType="1" res="1.3867691755294800e+00" rms="2.6853638887405396e-01" purity="1.0000000000000000e+00" nType="-99"/>
          </Node>
          <Node pos="r" depth="2" NCoef="0" IVar="2" Cut="5.3714286804199219e+01" cType="1" res="2.6283998489379883e+00" rms="3.0783879756927490e-01" purity="1.0000000000000000e+00" nType="0">
            <Node pos="l" depth="3" NCoef="0" IVar="-1" Cut="0.0000000000000000e+00" cType="1" res="2.2027618885040283e+00" rms="2.0279964804649353e-01" purity="1.0000000000000000e+00" nType="-99"/>
            <Node pos="r" depth="3" NCoef="0" IVar="-1" Cut="0.0000000000000000e+00" cType="1" res="3.2296786308288574e+00" rms="7.4161574244499207e-02" purity="1.0000000000000000e+00" nType="-99"/>
          </Node>
        </Node>
      </Node>
    </BinaryTree>
    <BinaryTree type="DecisionTree" boostWeight="1.0000000000000000e+00" itree="1">
      <Node pos="s" depth="0" NCoef="0" IVar="2" Cut="3.0000000000000000e+00" cType="1" res="7.9091865336522460e-04" rms="2.5270140171051025e-01" purity="1.0000000000000000e+00" nType="0">
        <Node pos="l" depth="1" NCoef="0" IVar="-1" Cut="0.0000000000000000e+00" cType="1" res="-4.3117034435272217e-01" rms="4.7536633908748627e-02" purity="1.0000000000000000e+00" nType="-99"/>
        <Node pos="r" depth="1" NCoef="0" IVar="2" Cut="6.0142856597900391e+01" cType="1" res="2.7952112257480621e-02" rms="2.4388301372528076e-01" purity="1.0000000000000000e+00" nType="0">
          <Node pos="l" depth="2" NCoef="0" IVar="2" Cut="5.4571430206298828e+01" cType="1" res="7.5771298725157976e-04" rms="2.3845657706260681e-01" purity="1.0000000000000000e+00" nType="0">
            <Node pos="l" depth="3" NCoef="0" IVar="-1" Cut="0.0000000000000000e+00" cType="1" res="3.1224286183714867e-02" rms="2.3673123121261597e-01" purity="1.0000000000000000e+00" nType="-99"/>
            <Node pos="r" depth="3" NCoef="0" IVar="-1" Cut="0.0000000000000000e+00" cType="1" res="-2.1996532380580902e-01" rms="1.5844197571277618e-01" purity="1.0000000000000000e+00" nType="-99"/>
          </Node>
          <Node pos="r" depth="2" NCoef="0" IVar="-1" Cut="0.0000000000000000e+00" cType="1" res="3.5981693863868713e-01" rms="7.1177415549755096e-02" purity="1.0000000000000000e+00" nType="-99"/>
        </Node>
      </Node>
    </BinaryTree>
    <BinaryTree type="DecisionTree" boostWeight="1.0000000000000000e+00" itree="2">
      <Node pos="s" depth="0" NCoef="0" IVar="2" Cut="1.2000000000000000e+01" cType="1" res="2.7010054327547550e-04" rms="1.9585533440113068e-01" purity="1.0000000000000000e+00" nType="0">
        <Node pos="l" depth="1" NCoef="0" IVar="2" Cut="5.2380952835083008e+00" cType="1" res="5.9662286192178726e-02" rms="1.8492364883422852e-01" purity="1.0000000000000000e+00" nType="0">
          <Node pos="l" depth="2" NCoef="0" IVar="2" Cut="1.1904761791229248e+00" cType="1" res="-1.8358049914240837e-02" rms="1.2299652397632599e-01" purity="1.0000000000000000e+00" nType="0">
            <Node pos="l" depth="3" NCoef="0" IVar="-1" Cut="0.0000000000000000e+00" cType="1" res="-4.7743707895278931e-02" rms="9.7675092518329620e-02" purity="1.0000000000000000e+00" nType="-99"/>
            <Node pos="r" depth="3" NCoef="0" IVar="-1" Cut="0.0000000000000000e+00" cType="1" res="8.5012223571538925e-03" rms="1.3767705857753754e-01" purity="1.0000000000000000e+00" nType="-99"/>
          </Node>
          <Node pos="r" depth="2" NCoef="0" IVar="-1" Cut="0.0000000000000000e+00" cType="1" res="3.5586956143379211e-01" rms="2.0136517286300659e-01" purity="1.0000000000000000e+00" nType="-99"/>
        </Node>
        <Node pos="r" depth="1" NCoef="0" IVar="2" Cut="5.8142856597900391e+01" cType="1" res="-1.6276456415653229e-02" rms="1.9560794532299042e-01" purity="1.0000000000000000e+00" nType="0">
          <Node pos="l" depth="2" NCoef="0" IVar="2" Cut="5.3619049072265625e+01" cType="1" res="-2.9362078756093979e-02" rms="1.9969530403614044e-01" purity="1.0000000000000000e+00" nType="0">
            <Node pos="l" depth="3" NCoef="0" IVar="-1" Cut="0.0000000000000000e+00" cType="1" res="-2.0764734596014023e-02" rms="2.0215626060962677e-01" purity="1.0000000000000000e+00" nType="-99"/>
            <Node pos="r" depth="3" NCoef="0" IVar="-1" Cut="0.0000000000000000e+00" cType="1" res="-1.8763244152069092e-01" rms="1.3053548336029053e-01" purity="1.0000000000000000e+00" nType="-99"/>
          </Node>
          <Node pos="r" depth="2" NCoef="0" IVar="2" Cut="6.1095237731933594e+01" cType="1" res="5.8756727725267410e-02" rms="1.4961926639080048e-01" purity="1.0000000000000000e+00" nType="0">
            <Node pos="l" depth="3" NCoef="0" IVar="-1" Cut="0.0000000000000000e+00" cType="1" res="1.0359857231378555e-01" rms="1.9769410789012909e-01" purity="1.0000000000000000e+00" nType="-99"/>
            <Node pos="r" depth="3" NCoef="0" IVar="-1" Cut="0.0000000000000000e+00" cType="1" res="4.9658052623271942e-02" rms="9.6893489360809326e-02" purity="1.0000000000000000e+00" nType="-99"/>
          </Node>
        </Node>
      </Node>
    </BinaryTree>
    <BinaryTree type="DecisionTree" boostWeight="1.0000000000000000e+00" itree="3">
      <Node pos="s" depth="0" NCoef="0" IVar="2" Cut="4.5000000000000000e+01" cType="1" res="-3.7037668516859412e-04" rms="1.7512126266956329e-01" purity="1.0000000000000000e+00" nType="0">
        <Node pos="l" depth="1" NCoef="0" IVar="2" Cut="3.9809524536132812e+01" cType="1" res="-1.2909067794680595e-02" rms="1.7601878941059113e-01" purity="1.0000000000000000e+00" nType="0">
          <Node pos="l" depth="2" NCoef="0" IVar="2" Cut="3.5285713195800781e+01" cType="1" res="2.1092386450618505e-03" rms="1.7576637864112854e-01" purity="1.0000000000000000e+00" nType="0">
            <Node pos="l" depth="3" NCoef="0" IVar="-1" Cut="0.0000000000000000e+00" cType="1" res="-1.5751497820019722e-02" rms="1.7542065680027008e-01" purity="1.0000000000000000e+00" nType="-99"/>
            <Node pos="r" depth="3" NCoef="0" IVar="-1" Cut="0.0000000000000000e+00" cType="1" res="1.6327942907810211e-01" rms="1.0690534114837646e-01" purity="1.0000000000000000e+00" nType="-99"/>
          </Node>
          <Node pos="r" depth="2" NCoef="0" IVar="-1" Cut="0.0000000000000000e+00" cType="1" res="-1.8505606055259705e-01" rms="1.1703595519065857e-01" purity="1.0000000000000000e+00" nType="-99"/>
        </Node>
        <Node pos="r" depth="1" NCoef="0" IVar="2" Cut="6.0428569793701172e+01" cType="1" res="2.6172241196036339e-02" rms="1.7018514871597290e-01" purity="1.0000000000000000e+00" nType="0">
          <Node pos="l" depth="2" NCoef="0" IVar="2" Cut="5.6428569793701172e+01" cType="1" res="5.4681047797203064e-02" rms="1.7284680902957916e-01" purity="1.0000000000000000e+00" nType="0">
            <Node pos="l" depth="3" NCoef="0" IVar="-1" Cut="0.0000000000000000e+00" cType="1" res="2.9672896489500999e-02" rms="1.8552675843238831e-01" purity="1.0000000000000000e+00" nType="-99"/>
            <Node pos="r" depth="3" NCoef="0" IVar="-1" Cut="0.0000000000000000e+00" cType="1" res="1.5346369147300720e-01" rms="7.0033952593803406e-02" purity="1.0000000000000000e+00" nType="-99"/>
          </Node>
          <Node pos="r" depth="2" NCoef="0" IVar="-1" Cut="0.0000000000000000e+00" cType="1" res="-5.9898871928453445e-02" rms="1.3315971195697784e-01" purity="1.0000000000000000e+00" nType="-99"/>
        </Node>
      </Node>
    </BinaryTree>
    <BinaryTree type="DecisionTree" boostWeight="1.0000000000000000e+00" itree="4">
      <Node pos="s" depth="0" NCoef="0" IVar="2" Cut="4.8000000000000000e+01" cType="1" res="2.1027008187957108e-04" rms="1.5638688206672668e-01" purity="1.0000000000000000e+00" nType="0">
        <Node pos="l" depth="1" NCoef="0" IVar="2" Cut="4.2523811340332031e+01" cType="1" res="1.1496836319565773e-02" rms="1.6220401227474213e-01" purity="1.0000000000000000e+00" nType="0">
          <Node pos="l" depth="2" NCoef="0" IVar="2" Cut="3.4000000000000000e+01" cType="1" res="-7.1037160232663155e-03" rms="1.5972912311553955e-01" purity="1.0000000000000000e+00" nType="0">
            <Node pos="l" depth="3" NCoef="0" IVar="-1" Cut="0.0000000000000000e+00" cType="1" res="1.3301530852913857e-02" rms="1.6308827698230743e-01" purity="1.0000000000000000e+00" nType="-99"/>
            <Node pos="r" depth="3" NCoef="0" IVar="-1" Cut="0.0000000000000000e+00" cType="1" res="-8.1954807043075562e-02" rms="1.2488675862550735e-01" purity="1.0000000000000000e+00" nType="-99"/>
          </Node>
          <Node pos="r" depth="2" NCoef="0" IVar="-1" Cut="0.0000000000000000e+00" cType="1" res="2.1675668656826019e-01" rms="5.4613515734672546e-02" purity="1.0000000000000000e+00" nType="-99"/>
        </Node>
        <Node pos="r" depth="1" NCoef="0" IVar="2" Cut="5.1571430206298828e+01" cType="1" res="-2.9300097376108170e-02" rms="1.3567328453063965e-01" purity="1.0000000000000000e+00" nType="0">
          <Node pos="l" depth="2" NCoef="0" IVar="-1" Cut="0.0000000000000000e+00" cType="1" res="-1.6103185713291168e-01" rms="9.6187628805637360e-02" purity="1.0000000000000000e+00" nType="-99"/>
          <Node pos="r" depth="2" NCoef="0" IVar="2" Cut="6.1428569793701172e+01" cType="1" res="-4.6162316575646400e-03" rms="1.3260728120803833e-01" purity="1.0000000000000000e+00" nType="0">
            <Node pos="l" depth="3" NCoef="0" IVar="-1" Cut="0.0000000000000000e+00" cType="1" res="-3.7482783198356628e-02" rms="1.3930058479309082e-01" purity="1.0000000000000000e+00" nType="-99"/>
            <Node pos="r" depth="3" NCoef="0" IVar="-1" Cut="0.0000000000000000e+00" cType="1" res="5.8443237096071243e-02" rms="9.0269297361373901e-02" purity="1.0000000000000000e+00" nType="-99"/>
          </Node>
        </Node>
      </Node>
    </BinaryTree>
    <BinaryTree type="DecisionTree" boostWeight="1.0000000000000000e+00" itree="5">
      <Node pos="s" depth="0" NCoef="0" IVar="2" Cut="5.4000000000000000e+01" cType="1" res="-4.3190014548599720e-04" rms="1.3410604000091553e-01" purity="1.0000000000000000e+00" nType="0">
        <Node pos="l" depth="1" NCoef="0" IVar="2" Cut="4.5428569793701172e+01" cType="1" res="5.8130985125899315e-03" rms="1.3919660449028015e-01" purity="1.0000000000000000e+00" nType="0">
          <Node pos="l" depth="2" NCoef="0" IVar="2" Cut="2.1428570747375488e+00" cType="1" res="-4.2207380756735802e-03" rms="1.3942795991897583e-01" purity="1.0000000000000000e+00" nType="0">
            <Node pos="l" depth="3" NCoef="0" IVar="-1" Cut="0.0000000000000000e+00" cType="1" res="4.2192183434963226e-02" rms="1.0774439573287964e-01" purity="1.0000000000000000e+00" nType="-99"/>
            <Node pos="r" depth="3" NCoef="0" IVar="-1" Cut="0.0000000000000000e+00" cType="1" res="-1.8372077494859695e-02" rms="1.4199265837669373e-01" purity="1.0000000000000000e+00" nType="-99"/>
          </Node>
          <Node pos="r" depth="2" NCoef="0" IVar="2" Cut="4.9333332061767578e+01" cType="1" res="6.7703403532505035e-02" rms="1.2052662670612335e-01" purity="1.0000000000000000e+00" nType="0">
            <Node pos="l" depth="3" NCoef="0" IVar="-1" Cut="0.0000000000000000e+00" cType="1" res="-8.6501762270927429e-03" rms="1.1932268738746643e-01" purity="1.0000000000000000e+00" nType="-99"/>
            <Node pos="r" depth="3" NCoef="0" IVar="-1" Cut="0.0000000000000000e+00" cType="1" res="1.7050623893737793e-01" rms="5.8509364724159241e-02" purity="1.0000000000000000e+00" nType="-99"/>
          </Node>
        </Node>
        <Node pos="r" depth="1" NCoef="0" IVar="2" Cut="5.7428569793701172e+01" cType="1" res="-2.6528079062700272e-02" rms="1.0642717778682709e-01" purity="1.0000000000000000e+00" nType="0">
          <Node pos="l" depth="2" NCoef="0" IVar="-1" Cut="0.0000000000000000e+00" cType="1" res="-8.0092653632164001e-02" rms="9.0922877192497253e-02" purity="1.0000000000000000e+00" nType="-99"/>
          <Node pos="r" depth="2" NCoef="0" IVar="2" Cut="6.1095237731933594e+01" cType="1" res="-7.5345681980252266e-03" rms="1.0777207463979721e-01" purity="1.0000000000000000e+00" nType="0">
            <Node pos="l" depth="3" NCoef="0" IVar="-1" Cut="0.0000000000000000e+00" cType="1" res="-1.3985007070004940e-02" rms="1.2031482905149460e-01" purity="1.0000000000000000e+00" nType="-99"/>
            <Node pos="r" depth="3" NCoef="0" IVar="-1" Cut="0.0000000000000000e+00" cType="1" res="-1.1631093220785260e-03" rms="9.3117900192737579e-02" purity="1.0000000000000000e+00" nType="-99"/>
          </Node>
        </Node>
      </Node>
    </BinaryTree>
    <BinaryTree type="DecisionTree" boostWeight="1.0000000000000000e+00" itree="6">
      <Node pos="s" depth="0" NCoef="0" IVar="2" Cut="2.1000000000000000e+01" cType="1" res="5.0894170999526978e-04" rms="1.2458521872758865e-01" purity="1.0000000000000000e+00" nType="0">
        <Node pos="l" depth="1" NCoef="0" IVar="2" Cut="1.6190475463867188e+01" cType="1" res="-1.4507672749459743e-02" rms="1.2949557602405548e-01" purity="1.0000000000000000e+00" nType="0">
          <Node pos="l" depth="2" NCoef="0" IVar="2" Cut="1.2190476417541504e+01" cType="1" res="8.8543388992547989e-03" rms="1.2636280059814453e-01" purity="1.0000000000000000e+00" nType="0">
            <Node pos="l" depth="3" NCoef="0" IVar="-1" Cut="0.0000000000000000e+00" cType="1" res="-1.8406627699732780e-02" rms="1.2459260970354080e-01" purity="1.0000000000000000e+00" nType="-99"/>
            <Node pos="r" depth="3" NCoef="0" IVar="-1" Cut="0.0000000000000000e+00" cType="1" res="1.3273240625858307e-01" rms="9.0844802558422089e-02" purity="1.0000000000000000e+00" nType="-99"/>
          </Node>
          <Node pos="r" depth="2" NCoef="0" IVar="-1" Cut="0.0000000000000000e+00" cType="1" res="-2.0845368504524231e-01" rms="6.2387254089117050e-02" purity="1.0000000000000000e+00" nType="-99"/>
        </Node>
        <Node pos="r" depth="1" NCoef="0" IVar="2" Cut="2.5000000000000000e+01" cType="1" res="8.5115432739257812e-03" rms="1.2112961709499359e-01" purity="1.0000000000000000e+00" nType="0">
          <Node pos="l" depth="2" NCoef="0" IVar="-1" Cut="0.0000000000000000e+00" cType="1" res="2.3446011543273926e-01" rms="5.4127480834722519e-02" purity="1.0000000000000000e+00" nType="-99"/>
          <Node pos="r" depth="2" NCoef="0" IVar="2" Cut="2.8619047164916992e+01" cType="1" res="-4.1936095803976059e-03" rms="1.1776994168758392e-01" purity="1.0000000000000000e+00" nType="0">
            <Node pos="l" depth="3" NCoef="0" IVar="-1" Cut="0.0000000000000000e+00" cType="1" res="-2.2214625775814056e-01" rms="5.7520635426044464e-02" purity="1.0000000000000000e+00" nType="-99"/>
            <Node pos="r" depth="3" NCoef="0" IVar="-1" Cut="0.0000000000000000e+00" cType="1" res="1.1897112242877483e-02" rms="1.1361586302518845e-01" purity="1.0000000000000000e+00" nType="-99"/>
          </Node>
        </Node>
      </Node>
    </BinaryTree>
    <BinaryTree type="DecisionTree" boostWeight="1.0000000000000000e+00" itree="7">
      <Node pos="s" depth="0" NCoef="0" IVar="2" Cut="3.3000000000000000e+01" cType="1" res="1.0819739691214636e-04" rms="1.0974319279193878e-01" purity="1.0000000000000000e+00" nType="0">
        <Node pos="l" depth="1" NCoef="0" IVar="2" Cut="2.7428571701049805e+01" cType="1" res="1.3995433226227760e-02" rms="1.1599927395582199e-01" purity="1.0000000000000000e+00" nType="0">
          <Node pos="l" depth="2" NCoef="0" IVar="2" Cut="1.0285714149475098e+01" cType="1" res="-4.3885889463126659e-03" rms="1.1316473037004471e-01" purity="1.0000000000000000e+00" nType="0">
            <Node pos="l" depth="3" NCoef="0" IVar="-1" Cut="0.0000000000000000e+00" cType="1" res="3.0889911577105522e-02" rms="1.0761261731386185e-01" purity="1.0000000000000000e+00" nType="-99"/>
            <Node pos="r" depth="3" NCoef="0" IVar="-1" Cut="0.0000000000000000e+00" cType="1" res="-4.1896134614944458e-02" rms="1.1288431286811829e-01" purity="1.0000000000000000e+00" nType="-99"/>
          </Node>
          <Node pos="r" depth="2" NCoef="0" IVar="-1" Cut="0.0000000000000000e+00" cType="1" res="2.0916305482387543e-01" rms="4.4443495571613312e-02" purity="1.0000000000000000e+00" nType="-99"/>
        </Node>
        <Node pos="r" depth="1" NCoef="0" IVar="2" Cut="3.7285713195800781e+01" cType="1" res="-1.4585994184017181e-02" rms="1.0064423084259033e-01" purity="1.0000000000000000e+00" nType="0">
          <Node pos="l" depth="2" NCoef="0" IVar="-1" Cut="0.0000000000000000e+00" cType="1" res="-8.8647916913032532e-02" rms="7.4769958853721619e-02" purity="1.0000000000000000e+00" nType="-99"/>
          <Node pos="r" depth="2" NCoef="0" IVar="2" Cut="4.2761905670166016e+01" cType="1" res="-5.7048145681619644e-03" rms="1.0139282792806625e-01" purity="1.0000000000000000e+00" nType="0">
            <Node pos="l" depth="3" NCoef="0" IVar="-1" Cut="0.0000000000000000e+00" cType="1" res="6.9399103522300720e-02" rms="1.1291025578975677e-01" purity="1.0000000000000000e+00" nType="-99"/>
            <Node pos="r" depth="3" NCoef="0" IVar="-1" Cut="0.0000000000000000e+00" cType="1" res="-1.7414450645446777e-02" rms="9.6525430679321289e-02" purity="1.0000000000000000e+00" nType="-99"/>
          </Node>
        </Node>
      </Node>
    </BinaryTree>
    <BinaryTree type="DecisionTree" boostWeight="1.0000000000000000e+00" itree="8">
      <Node pos="s" depth="0" NCoef="0" IVar="2" Cut="1.5000000000000000e+01" cType="1" res="1.1089887993875891e-04" rms="1.0179494321346283e-01" purity="1.0000000000000000e+00" nType="0">
        <Node pos="l" depth="1" NCoef="0" IVar="2" Cut="1.0666666984558105e+01" cType="1" res="-2.1036222577095032e-02" rms="1.0365684330463409e-01" purity="1.0000000000000000e+00" nType="0">
          <Node pos="l" depth="2" NCoef="0" IVar="2" Cut="6.1904764175415039e+00" cType="1" res="2.1943172032479197e-04" rms="1.0476820170879364e-01" purity="1.0000000000000000e+00" nType="0">
            <Node pos="l" depth="3" NCoef="0" IVar="-1" Cut="0.0000000000000000e+00" cType="1" res="-4.4060461223125458e-02" rms="9.6746347844600677e-02" purity="1.0000000000000000e+00" nType="-99"/>
            <Node pos="r" depth="3" NCoef="0" IVar="-1" Cut="0.0000000000000000e+00" cType="1" res="1.2528704106807709e-01" rms="8.2152321934700012e-02" purity="1.0000000000000000e+00" nType="-99"/>
          </Node>
          <Node pos="r" depth="2" NCoef="0" IVar="-1" Cut="0.0000000000000000e+00" cType="1" res="-1.2650294601917267e-01" rms="5.5988945066928864e-02" purity="1.0000000000000000e+00" nType="-99"/>
        </Node>
        <Node pos="r" depth="1" NCoef="0" IVar="2" Cut="2.4142856597900391e+01" cType="1" res="7.6089561916887760e-03" rms="1.0005895048379898e-01" purity="1.0000000000000000e+00" nType="0">
          <Node pos="l" depth="2" NCoef="0" IVar="2" Cut="1.8428571701049805e+01" cType="1" res="4.4962763786315918e-02" rms="1.0266605019569397e-01" purity="1.0000000000000000e+00" nType="0">
            <Node pos="l" depth="3" NCoef="0" IVar="-1" Cut="0.0000000000000000e+00" cType="1" res="4.0839262306690216e-02" rms="1.0604786872863770e-01" purity="1.0000000000000000e+00" nType="-99"/>
            <Node pos="r" depth="3" NCoef="0" IVar="-1" Cut="0.0000000000000000e+00" cType="1" res="9.6374548971652985e-02" rms="9.7889676690101624e-02" purity="1.0000000000000000e+00" nType="-99"/>
          </Node>
          <Node pos="r" depth="2" NCoef="0" IVar="2" Cut="3.0428571701049805e+01" cType="1" res="-1.2439622078090906e-03" rms="9.7352288663387299e-02" purity="1.0000000000000000e+00" nType="0">
            <Node pos="l" depth="3" NCoef="0" IVar="-1" Cut="0.0000000000000000e+00" cType="1" res="-5.0853975117206573e-02" rms="8.1426151096820831e-02" purity="1.0000000000000000e+00" nType="-99"/>
            <Node pos="r" depth="3" NCoef="0" IVar="-1" Cut="0.0000000000000000e+00" cType="1" res="8.8658779859542847e-03" rms="9.8024204373359680e-02" purity="1.0000000000000000e+00" nType="-99"/>
          </Node>
        </Node>
      </Node>
    </BinaryTree>
    <BinaryTree type="DecisionTree" boostWeight="1.0000000000000000e+00" itree="9">
      <Node pos="s" depth="0" NCoef="0" IVar="2" Cut="3.0000000000000000e+00" cType="1" res="-6.0485012363642454e-04" rms="9.5635317265987396e-02" purity="1.0000000000000000e+00" nType="0">
        <Node pos="l" depth="1" NCoef="0" IVar="-1" Cut="0.0000000000000000e+00" cType="1" res="3.2665889710187912e-02" rms="9.1998852789402008e-02" purity="1.0000000000000000e+00" nType="-99"/>
        <Node pos="r" depth="1" NCoef="0" IVar="2" Cut="8.7142858505249023e+00" cType="1" res="-2.7783885598182678e-03" rms="9.5614820718765259e-02" purity="1.0000000000000000e+00" nType="0">
          <Node pos="l" depth="2" NCoef="0" IVar="-1" Cut="0.0000000000000000e+00" cType="1" res="-7.1148209273815155e-02" rms="8.9411392807960510e-02" purity="1.0000000000000000e+00" nType="-99"/>
          <Node pos="r" depth="2" NCoef="0" IVar="2" Cut="1.6714284896850586e+01" cType="1" res="2.7580326423048973e-03" rms="9.4729684293270111e-02" purity="1.0000000000000000e+00" nType="0">
            <Node pos="l" depth="3" NCoef="0" IVar="-1" Cut="0.0000000000000000e+00" cType="1" res="6.3832253217697144e-02" rms="8.7091982364654541e-02" purity="1.0000000000000000e+00" nType="-99"/>
            <Node pos="r" depth="3" NCoef="0" IVar="-1" Cut="0.0000000000000000e+00" cType="1" res="-5.3472933359444141e-03" rms="9.4004444777965546e-02" purity="1.0000000000000000e+00" nType="-99"/>
          </Node>
        </Node>
      </Node>
    </BinaryTree>
    <BinaryTree type="DecisionTree" boostWeight="1.0000000000000000e+00" itree="10">
      <Node pos="s" depth="0" NCoef="0" IVar="2" Cut="6.0000000000000000e+00" cType="1" res="6.7836655944120139e-05" rms="8.8308803737163544e-02" purity="1.0000000000000000e+00" nType="0">
        <Node pos="l" depth="1" NCoef="0" IVar="2" Cut="1.1904761791229248e+00" cType="1" res="1.8417632207274437e-02" rms="8.9486934244632721e-02" purity="1.0000000000000000e+00" nType="0">
          <Node pos="l" depth="2" NCoef="0" IVar="-1" Cut="0.0000000000000000e+00" cType="1" res="-3.5677067935466766e-02" rms="7.6862841844558716e-02" purity="1.0000000000000000e+00" nType="-99"/>
          <Node pos="r" depth="2" NCoef="0" IVar="-1" Cut="0.0000000000000000e+00" cType="1" res="9.2493392527103424e-02" rms="7.7329039573669434e-02" purity="1.0000000000000000e+00" nType="-99"/>
        </Node>
        <Node pos="r" depth="1" NCoef="0" IVar="2" Cut="2.2285715103149414e+01" cType="1" res="-2.5785833131521940e-03" rms="8.7821811437606812e-02" purity="1.0000000000000000e+00" nType="0">
          <Node pos="l" depth="2" NCoef="0" IVar="2" Cut="1.6666666030883789e+01" cType="1" res="-2.4038046598434448e-02" rms="8.1692144274711609e-02" purity="1.0000000000000000e+00" nType="0">
            <Node pos="l" depth="3" NCoef="0" IVar="-1" Cut="0.0000000000000000e+00" cType="1" res="-1.5302665531635284e-02" rms="7.6471559703350067e-02" purity="1.0000000000000000e+00" nType="-99"/>
            <Node pos="r" depth="3" NCoef="0" IVar="-1" Cut="0.0000000000000000e+00" cType="1" res="-7.4390396475791931e-02" rms="8.6416721343994141e-02" purity="1.0000000000000000e+00" nType="-99"/>
          </Node>
          <Node pos="r" depth="2" NCoef="0" IVar="2" Cut="3.2523811340332031e+01" cType="1" res="6.1003519222140312e-03" rms="8.8720537722110748e-02" purity="1.0000000000000000e+00" nType="0">
            <Node pos="l" depth="3" NCoef="0" IVar="-1" Cut="0.0000000000000000e+00" cType="1" res="4.6992119401693344e-02" rms="7.8727185726165771e-02" purity="1.0000000000000000e+00" nType="-99"/>
            <Node pos="r" depth="3" NCoef="0" IVar="-1" Cut="0.0000000000000000e+00" cType="1" res="-2.1743869874626398e-03" rms="8.9609988033771515e-02" purity="1.0000000000000000e+00" nType="-99"/>
          </Node>
        </Node>
      </Node>
    </BinaryTree>
    <BinaryTree type="DecisionTree" boostWeight="1.0000000000000000e+00" itree="11">
      <Node pos="s" depth="0" NCoef="0" IVar="2" Cut="5.1000000000000000e+01" cType="1" res="-2.2967558470554650e-04" rms="8.3486154675483704e-02" purity="1.0000000000000000e+00" nType="0">
        <Node pos="l" depth="1" NCoef="0" IVar="2" Cut="4.0476188659667969e+01" cType="1" res="-3.8113216869533062e-03" rms="8.2736179232597351e-02" purity="1.0000000000000000e+00" nType="0">
          <Node pos="l" depth="2" NCoef="0" IVar="2" Cut="3.4285713195800781e+01" cType="1" res="1.4013801701366901e-03" rms="8.2724027335643768e-02" purity="1.0000000000000000e+00" nType="0">
            <Node pos="l" depth="3" NCoef="0" IVar="-1" Cut="0.0000000000000000e+00" cType="1" res="-5.4335352033376694e-03" rms="8.0747514963150024e-02" purity="1.0000000000000000e+00" nType="-99"/>
            <Node pos="r" depth="3" NCoef="0" IVar="-1" Cut="0.0000000000000000e+00" cType="1" res="6.1692453920841217e-02" rms="8.6206898093223572e-02" purity="1.0000000000000000e+00" nType="-99"/>
          </Node>
          <Node pos="r" depth="2" NCoef="0" IVar="2" Cut="4.5285713195800781e+01" cType="1" res="-2.6580832898616791e-02" rms="7.8847452998161316e-02" purity="1.0000000000000000e+00" nType="0">
            <Node pos="l" depth="3" NCoef="0" IVar="-1" Cut="0.0000000000000000e+00" cType="1" res="-3.8028467446565628e-02" rms="6.1484459787607193e-02" purity="1.0000000000000000e+00" nType="-99"/>
            <Node pos="r" depth="3" NCoef="0" IVar="-1" Cut="0.0000000000000000e+00" cType="1" res="-3.2499693334102631e-02" rms="9.2404074966907501e-02" purity="1.0000000000000000e+00" nType="-99"/>
          </Node>
        </Node>
        <Node pos="r" depth="1" NCoef="0" IVar="2" Cut="6.0142856597900391e+01" cType="1" res="1.1409627273678780e-02" rms="8.4840402007102966e-02" purity="1.0000000000000000e+00" nType="0">
          <Node pos="l" depth="2" NCoef="0" IVar="2" Cut="5.5285713195800781e+01" cType="1" res="3.1710308045148849e-02" rms="7.7900066971778870e-02" purity="1.0000000000000000e+00" nType="0">
            <Node pos="l" depth="3" NCoef="0" IVar="-1" Cut="0.0000000000000000e+00" cType="1" res="-8.0810273066163063e-03" rms="7.6816305518150330e-02" purity="1.0000000000000000e+00" nType="-99"/>
            <Node pos="r" depth="3" NCoef="0" IVar="-1" Cut="0.0000000000000000e+00" cType="1" res="8.0632112920284271e-02" rms="5.8903727680444717e-02" purity="1.0000000000000000e+00" nType="-99"/>
          </Node>
          <Node pos="r" depth="2" NCoef="0" IVar="-1" Cut="0.0000000000000000e+00" cType="1" res="-3.5186663269996643e-02" rms="8.4624655544757843e-02" purity="1.0000000000000000e+00" nType="-99"/>
        </Node>
      </Node>
    </BinaryTree>
    <BinaryTree type="DecisionTree" boostWeight="1.0000000000000000e+00" itree="12">
      <Node pos="s" depth="0" NCoef="0" IVar="2" Cut="2.1000000000000000e+01" cType="1" res="-7.4995266913902014e-05" rms="7.5108140707015991e-02" purity="1.0000000000000000e+00" nType="0">
        <Node pos="l" depth="1" NCoef="0" IVar="2" Cut="1.3333333015441895e+01" cType="1" res="8.9774280786514282e-03" rms="7.4959985911846161e-02" purity="1.0000000000000000e+00" nType="0">
          <Node pos="l" depth="2" NCoef="0" IVar="2" Cut="2.4761905670166016e+00" cType="1" res="-5.4567749612033367e-03" rms="7.3365651071071625e-02" purity="1.0000000000000000e+00" nType="0">
            <Node pos="l" depth="3" NCoef="0" IVar="-1" Cut="0.0000000000000000e+00" cType="1" res="1.7670856788754463e-02" rms="6.9585621356964111e-02" purity="1.0000000000000000e+00" nType="-99"/>
            <Node pos="r" depth="3" NCoef="0" IVar="-1" Cut="0.0000000000000000e+00" cType="1" res="-1.9990444183349609e-02" rms="7.3431275784969330e-02" purity="1.0000000000000000e+00" nType="-99"/>
          </Node>
          <Node pos="r" depth="2" NCoef="0" IVar="-1" Cut="0.0000000000000000e+00" cType="1" res="6.2200646847486496e-02" rms="6.6688291728496552e-02" purity="1.0000000000000000e+00" nType="-99"/>
        </Node>
        <Node pos="r" depth="1" NCoef="0" IVar="2" Cut="3.1000000000000000e+01" cType="1" res="-4.8991804942488670e-03" rms="7.4740469455718994e-02" purity="1.0000000000000000e+00" nType="0">
          <Node pos="l" depth="2" NCoef="0" IVar="2" Cut="2.5285715103149414e+01" cType="1" res="-2.1998981013894081e-02" rms="7.1756556630134583e-02" purity="1.0000000000000000e+00" nType="0">
            <Node pos="l" depth="3" NCoef="0" IVar="-1" Cut="0.0000000000000000e+00" cType="1" res="-4.4138416647911072e-02" rms="7.2551131248474121e-02" purity="1.0000000000000000e+00" nType="-99"/>
            <Node pos="r" depth="3" NCoef="0" IVar="-1" Cut="0.0000000000000000e+00" cType="1" res="-1.8870886415243149e-02" rms="6.9902420043945312e-02" purity="1.0000000000000000e+00" nType="-99"/>
          </Node>
          <Node pos="r" depth="2" NCoef="0" IVar="2" Cut="6.1476188659667969e+01" cType="1" res="-3.1689141178503633e-04" rms="7.4859365820884705e-02" purity="1.0000000000000000e+00" nType="0">
            <Node pos="l" depth="3" NCoef="0" IVar="-1" Cut="0.0000000000000000e+00" cType="1" res="-4.9913884140551090e-03" rms="7.4602924287319183e-02" purity="1.0000000000000000e+00" nType="-99"/>
            <Node pos="r" depth="3" NCoef="0" IVar="-1" Cut="0.0000000000000000e+00" cType="1" res="3.7285309284925461e-02" rms="7.1035273373126984e-02" purity="1.0000000000000000e+00" nType="-99"/>
          </Node>
        </Node>
      </Node>
    </BinaryTree>
    <BinaryTree type="DecisionTree" boostWeight="1.0000000000000000e+00" itree="13">
      <Node pos="s" depth="0" NCoef="0" IVar="2" Cut="4.8000000000000000e+01" cType="1" res="-3.2247797935269773e-04" rms="7.2338022291660309e-02" purity="1.0000000000000000e+00" nType="0">
        <Node pos="l" depth="1" NCoef="0" IVar="2" Cut="4.2523811340332031e+01" cType="1" res="4.5660403557121754e-03" rms="7.2474546730518341e-02" purity="1.0000000000000000e+00" nType="0">
          <Node pos="l" depth="2" NCoef="0" IVar="2" Cut="4.0000000000000000e+00" cType="1" res="6.8814208498224616e-04" rms="7.2393871843814850e-02" purity="1.0000000000000000e+00" nType="0">
            <Node pos="l" depth="3" NCoef="0" IVar="-1" Cut="0.0000000000000000e+00" cType="1" res="-2.3327207192778587e-02" rms="7.2230972349643707e-02" purity="1.0000000000000000e+00" nType="-99"/>
            <Node pos="r" depth="3" NCoef="0" IVar="-1" Cut="0.0000000000000000e+00" cType="1" res="5.1870117895305157e-03" rms="7.1972697973251343e-02" purity="1.0000000000000000e+00" nType="-99"/>
          </Node>
          <Node pos="r" depth="2" NCoef="0" IVar="-1" Cut="0.0000000000000000e+00" cType="1" res="5.3669761866331100e-02" rms="6.3519261777400970e-02" purity="1.0000000000000000e+00" nType="-99"/>
        </Node>
        <Node pos="r" depth="1" NCoef="0" IVar="2" Cut="5.1571430206298828e+01" cType="1" res="-1.3104219920933247e-02" rms="7.0393458008766174e-02" purity="1.0000000000000000e+00" nType="0">
          <Node pos="l" depth="2" NCoef="0" IVar="-1" Cut="0.0000000000000000e+00" cType="1" res="-4.4532775878906250e-02" rms="5.4794006049633026e-02" purity="1.0000000000000000e+00" nType="-99"/>
          <Node pos="r" depth="2" NCoef="0" IVar="2" Cut="5.8285713195800781e+01" cType="1" res="-6.8440907634794712e-03" rms="7.2378769516944885e-02" purity="1.0000000000000000e+00" nType="0">
            <Node pos="l" depth="3" NCoef="0" IVar="-1" Cut="0.0000000000000000e+00" cType="1" res="2.1458962932229042e-02" rms="6.6240884363651276e-02" purity="1.0000000000000000e+00" nType="-99"/>
            <Node pos="r" depth="3" NCoef="0" IVar="-1" Cut="0.0000000000000000e+00" cType="1" res="-3.8160298019647598e-02" rms="7.1742780506610870e-02" purity="1.0000000000000000e+00" nType="-99"/>
          </Node>
        </Node>
      </Node>
    </BinaryTree>
    <BinaryTree type="DecisionTree" boostWeight="1.0000000000000000e+00" itree="14">
      <Node pos="s" depth="0" NCoef="0" IVar="2" Cut="3.0000000000000000e+00" cType="1" res="-6.3789237174205482e-05" rms="6.8583898246288300e-02" purity="1.0000000000000000e+00" nType="0">
        <Node pos="l" depth="1" NCoef="0" IVar="-1" Cut="0.0000000000000000e+00" cType="1" res="2.3678323253989220e-02" rms="6.5773703157901764e-02" purity="1.0000000000000000e+00" nType="-99"/>
        <Node pos="r" depth="1" NCoef="0" IVar="2" Cut="4.5857143402099609e+01" cType="1" res="-1.5100890304893255e-03" rms="6.8617336452007294e-02" purity="1.0000000000000000e+00" nType="0">
          <Node pos="l" depth="2" NCoef="0" IVar="2" Cut="3.3000000000000000e+01" cType="1" res="-5.1234904676675797e-03" rms="6.9340564310550690e-02" purity="1.0000000000000000e+00" nType="0">
            <Node pos="l" depth="3" NCoef="0" IVar="-1" Cut="0.0000000000000000e+00" cType="1" res="1.3691221829503775e-03" rms="6.8980872631072998e-02" purity="1.0000000000000000e+00" nType="-99"/>
            <Node pos="r" depth="3" NCoef="0" IVar="-1" Cut="0.0000000000000000e+00" cType="1" res="-2.9839295893907547e-02" rms="6.7729502916336060e-02" purity="1.0000000000000000e+00" nType="-99"/>
          </Node>
          <Node pos="r" depth="2" NCoef="0" IVar="2" Cut="5.3285713195800781e+01" cType="1" res="5.7839001528918743e-03" rms="6.6538535058498383e-02" purity="1.0000000000000000e+00" nType="0">
            <Node pos="l" depth="3" NCoef="0" IVar="-1" Cut="0.0000000000000000e+00" cType="1" res="3.4293502569198608e-02" rms="6.1423264443874359e-02" purity="1.0000000000000000e+00" nType="-99"/>
            <Node pos="r" depth="3" NCoef="0" IVar="-1" Cut="0.0000000000000000e+00" cType="1" res="-7.6420102268457413e-03" rms="6.6466994583606720e-02" purity="1.0000000000000000e+00" nType="-99"/>
          </Node>
        </Node>
      </Node>
    </BinaryTree>
    <BinaryTree type="DecisionTree" boostWeight="1.0000000000000000e+00" itree="15">
      <Node pos="s" depth="0" NCoef="0" IVar="2" Cut="6.0000000000000000e+01" cType="1" res="2.6464638722245581e-05" rms="6.7426420748233795e-02" purity="1.0000000000000000e+00" nType="0">
        <Node pos="l" depth="1" NCoef="0" IVar="2" Cut="4.7761905670166016e+01" cType="1" res="-1.6355018597096205e-03" rms="6.6911123692989349e-02" purity="1.0000000000000000e+00" nType="0">
          <Node pos="l" depth="2" NCoef="0" IVar="2" Cut="1.7904762268066406e+01" cType="1" res="1.7981003038585186e-03" rms="6.8193197250366211e-02" purity="1.0000000000000000e+00" nType="0">
            <Node pos="l" depth="3" NCoef="0" IVar="-1" Cut="0.0000000000000000e+00" cType="1" res="-9.1297226026654243e-03" rms="6.6951230168342590e-02" purity="1.0000000000000000e+00" nType="-99"/>
            <Node pos="r" depth="3" NCoef="0" IVar="-1" Cut="0.0000000000000000e+00" cType="1" res="1.0982509702444077e-02" rms="6.8430982530117035e-02" purity="1.0000000000000000e+00" nType="-99"/>
          </Node>
          <Node pos="r" depth="2" NCoef="0" IVar="2" Cut="5.5333332061767578e+01" cType="1" res="-1.5710594132542610e-02" rms="5.9334818273782730e-02" purity="1.0000000000000000e+00" nType="0">
            <Node pos="l" depth="3" NCoef="0" IVar="-1" Cut="0.0000000000000000e+00" cType="1" res="-3.3466242253780365e-02" rms="6.0722228139638901e-02" purity="1.0000000000000000e+00" nType="-99"/>
            <Node pos="r" depth="3" NCoef="0" IVar="-1" Cut="0.0000000000000000e+00" cType="1" res="2.6667551137506962e-03" rms="5.2069265395402908e-02" purity="1.0000000000000000e+00" nType="-99"/>
          </Node>
        </Node>
        <Node pos="r" depth="1" NCoef="0" IVar="-1" Cut="0.0000000000000000e+00" cType="1" res="2.4292793124914169e-02" rms="7.0145733654499054e-02" purity="1.0000000000000000e+00" nType="-99"/>
      </Node>
    </BinaryTree>
    <BinaryTree type="DecisionTree" boostWeight="1.0000000000000000e+00" itree="16">
      <Node pos="s" depth="0" NCoef="0" IVar="2" Cut="5.4000000000000000e+01" cType="1" res="-2.0612867956515402e-04" rms="6.7157424986362457e-02" purity="1.0000000000000000e+00" nType="0">
        <Node pos="l" depth="1" NCoef="0" IVar="2" Cut="4.5428569793701172e+01" cType="1" res="1.4948080061003566e-03" rms="6.7536734044551849e-02" purity="1.0000000000000000e+00" nType="0">
          <Node pos="l" depth="2" NCoef="0" IVar="2" Cut="1.0714285850524902e+01" cType="1" res="-1.2322907568886876e-03" rms="6.8151213228702545e-02" purity="1.0000000000000000e+00" nType="0">
            <Node pos="l" depth="3" NCoef="0" IVar="-1" Cut="0.0000000000000000e+00" cType="1" res="1.8552122637629509e-02" rms="6.6337540745735168e-02" purity="1.0000000000000000e+00" nType="-99"/>
            <Node pos="r" depth="3" NCoef="0" IVar="-1" Cut="0.0000000000000000e+00" cType="1" res="-1.0473634116351604e-02" rms="6.8004004657268524e-02" purity="1.0000000000000000e+00" nType="-99"/>
          </Node>
          <Node pos="r" depth="2" NCoef="0" IVar="2" Cut="4.9333332061767578e+01" cType="1" res="1.8315989524126053e-02" rms="6.0976255685091019e-02" purity="1.0000000000000000e+00" nType="0">
            <Node pos="l" depth="3" NCoef="0" IVar="-1" Cut="0.0000000000000000e+00" cType="1" res="1.2059259228408337e-02" rms="6.4763113856315613e-02" purity="1.0000000000000000e+00" nType="-99"/>
            <Node pos="r" depth="3" NCoef="0" IVar="-1" Cut="0.0000000000000000e+00" cType="1" res="3.1631592661142349e-02" rms="5.5492602288722992e-02" purity="1.0000000000000000e+00" nType="-99"/>
          </Node>
        </Node>
        <Node pos="r" depth="1" NCoef="0" IVar="2" Cut="6.1285713195800781e+01" cType="1" res="-7.3138880543410778e-03" rms="6.5069295465946198e-02" purity="1.0000000000000000e+00" nType="0">
          <Node pos="l" depth="2" NCoef="0" IVar="2" Cut="5.8333332061767578e+01" cType="1" res="-1.8192226067185402e-02" rms="6.0592945665121078e-02" purity="1.0000000000000000e+00" nType="0">
            <Node pos="l" depth="3" NCoef="0" IVar="-1" Cut="0.0000000000000000e+00" cType="1" res="-2.1592036355286837e-03" rms="5.8521915227174759e-02" purity="1.0000000000000000e+00" nType="-99"/>
            <Node pos="r" depth="3" NCoef="0" IVar="-1" Cut="0.0000000000000000e+00" cType="1" res="-5.1869820803403854e-02" rms="5.6929353624582291e-02" purity="1.0000000000000000e+00" nType="-99"/>
          </Node>
          <Node pos="r" depth="2" NCoef="0" IVar="-1" Cut="0.0000000000000000e+00" cType="1" res="2.1797731518745422e-02" rms="6.8194136023521423e-02" purity="1.0000000000000000e+00" nType="-99"/>
        </Node>
      </Node>
    </BinaryTree>
    <BinaryTree type="DecisionTree" boostWeight="1.0000000000000000e+00" itree="17">
      <Node pos="s" depth="0" NCoef="0" IVar="2" Cut="9.0000000000000000e+00" cType="1" res="-1.6127854178193957e-04" rms="6.5608285367488861e-02" purity="1.0000000000000000e+00" nType="0">
        <Node pos="l" depth="1" NCoef="0" IVar="2" Cut="4.1904764175415039e+00" cType="1" res="-1.0090163908898830e-02" rms="6.4608924090862274e-02" purity="1.0000000000000000e+00" nType="0">
          <Node pos="l" depth="2" NCoef="0" IVar="3" Cut="5.6604998779296875e+02" cType="1" res="-2.0350242033600807e-02" rms="6.2289927154779434e-02" purity="1.0000000000000000e+00" nType="0">
            <Node pos="l" depth="3" NCoef="0" IVar="-1" Cut="0.0000000000000000e+00" cType="1" res="-2.0524550229310989e-02" rms="6.3212037086486816e-02" purity="1.0000000000000000e+00" nType="-99"/>
            <Node pos="r" depth="3" NCoef="0" IVar="-1" Cut="0.0000000000000000e+00" cType="1" res="-3.3935610204935074e-02" rms="6.1168879270553589e-02" purity="1.0000000000000000e+00" nType="-99"/>
          </Node>
          <Node pos="r" depth="2" NCoef="0" IVar="-1" Cut="0.0000000000000000e+00" cType="1" res="9.5787830650806427e-03" rms="6.4698740839958191e-02" purity="1.0000000000000000e+00" nType="-99"/>
        </Node>
        <Node pos="r" depth="1" NCoef="0" IVar="2" Cut="3.9857143402099609e+01" cType="1" res="1.8981272587552667e-03" rms="6.5625838935375214e-02" purity="1.0000000000000000e+00" nType="0">
          <Node pos="l" depth="2" NCoef="0" IVar="2" Cut="3.4714286804199219e+01" cType="1" res="7.3798550292849541e-03" rms="6.7017860710620880e-02" purity="1.0000000000000000e+00" nType="0">
            <Node pos="l" depth="3" NCoef="0" IVar="-1" Cut="0.0000000000000000e+00" cType="1" res="1.7140707932412624e-03" rms="6.7578479647636414e-02" purity="1.0000000000000000e+00" nType="-99"/>
            <Node pos="r" depth="3" NCoef="0" IVar="-1" Cut="0.0000000000000000e+00" cType="1" res="5.6040555238723755e-02" rms="5.0747152417898178e-02" purity="1.0000000000000000e+00" nType="-99"/>
          </Node>
          <Node pos="r" depth="2" NCoef="0" IVar="2" Cut="5.4238094329833984e+01" cType="1" res="-4.1825147345662117e-03" rms="6.3495099544525146e-02" purity="1.0000000000000000e+00" nType="0">
            <Node pos="l" depth="3" NCoef="0" IVar="-1" Cut="0.0000000000000000e+00" cType="1" res="-1.9981851801276207e-02" rms="6.6039048135280609e-02" purity="1.0000000000000000e+00" nType="-99"/>
            <Node pos="r" depth="3" NCoef="0" IVar="-1" Cut="0.0000000000000000e+00" cType="1" res="9.6218446269631386e-03" rms="5.8187585324048996e-02" purity="1.0000000000000000e+00" nType="-99"/>
          </Node>
        </Node>
      </Node>
    </BinaryTree>
    <BinaryTree type="DecisionTree" boostWeight="1.0000000000000000e+00" itree="18">
      <Node pos="s" depth="0" NCoef="0" IVar="2" Cut="6.0000000000000000e+00" cType="1" res="-4.9117534217657521e-05" rms="6.4338080585002899e-02" purity="1.0000000000000000e+00" nType="0">
        <Node pos="l" depth="1" NCoef="0" IVar="2" Cut="1.1904761791229248e+00" cType="1" res="1.0085742920637131e-02" rms="6.5351679921150208e-02" purity="1.0000000000000000e+00" nType="0">
          <Node pos="l" depth="2" NCoef="0" IVar="-1" Cut="0.0000000000000000e+00" cType="1" res="5.3231818601489067e-03" rms="6.6719882190227509e-02" purity="1.0000000000000000e+00" nType="-99"/>
          <Node pos="r" depth="2" NCoef="0" IVar="-1" Cut="0.0000000000000000e+00" cType="1" res="2.3403221741318703e-02" rms="6.3488721847534180e-02" purity="1.0000000000000000e+00" nType="-99"/>
        </Node>
        <Node pos="r" depth="1" NCoef="0" IVar="2" Cut="6.0285713195800781e+01" cType="1" res="-1.5107740182429552e-03" rms="6.4058408141136169e-02" purity="1.0000000000000000e+00" nType="0">
          <Node pos="l" depth="2" NCoef="0" IVar="2" Cut="3.6857143402099609e+01" cType="1" res="2.7816186775453389e-04" rms="6.3777916133403778e-02" purity="1.0000000000000000e+00" nType="0">
            <Node pos="l" depth="3" NCoef="0" IVar="-1" Cut="0.0000000000000000e+00" cType="1" res="-8.9271329343318939e-03" rms="6.5340086817741394e-02" purity="1.0000000000000000e+00" nType="-99"/>
            <Node pos="r" depth="3" NCoef="0" IVar="-1" Cut="0.0000000000000000e+00" cType="1" res="1.0530468076467514e-02" rms="6.0814809054136276e-02" purity="1.0000000000000000e+00" nType="-99"/>
          </Node>
          <Node pos="r" depth="2" NCoef="0" IVar="-1" Cut="0.0000000000000000e+00" cType="1" res="-2.6423128321766853e-02" rms="6.4254917204380035e-02" purity="1.0000000000000000e+00" nType="-99"/>
        </Node>
      </Node>
    </BinaryTree>
    <BinaryTree type="DecisionTree" boostWeight="1.0000000000000000e+00" itree="19">
      <Node pos="s" depth="0" NCoef="0" IVar="2" Cut="3.3000000000000000e+01" cType="1" res="8.2355263657518663e-06" rms="6.2256447970867157e-02" purity="1.0000000000000000e+00" nType="0">
        <Node pos="l" depth="1" NCoef="0" IVar="2" Cut="1.8285715103149414e+01" cType="1" res="4.5093572698533535e-03" rms="6.3699565827846527e-02" purity="1.0000000000000000e+00" nType="0">
          <Node pos="l" depth="2" NCoef="0" IVar="2" Cut="1.0285714149475098e+01" cType="1" res="-3.4478895831853151e-03" rms="6.2292926013469696e-02" purity="1.0000000000000000e+00" nType="0">
            <Node pos="l" depth="3" NCoef="0" IVar="-1" Cut="0.0000000000000000e+00" cType="1" res="6.1149816028773785e-03" rms="6.2470015138387680e-02" purity="1.0000000000000000e+00" nType="-99"/>
            <Node pos="r" depth="3" NCoef="0" IVar="-1" Cut="0.0000000000000000e+00" cType="1" res="-2.1874500438570976e-02" rms="5.9787523001432419e-02" purity="1.0000000000000000e+00" nType="-99"/>
          </Node>
          <Node pos="r" depth="2" NCoef="0" IVar="2" Cut="2.4571428298950195e+01" cType="1" res="1.7514167353510857e-02" rms="6.3833169639110565e-02" purity="1.0000000000000000e+00" nType="0">
            <Node pos="l" depth="3" NCoef="0" IVar="-1" Cut="0.0000000000000000e+00" cType="1" res="4.6628840267658234e-02" rms="6.0183521360158920e-02" purity="1.0000000000000000e+00" nType="-99"/>
            <Node pos="r" depth="3" NCoef="0" IVar="-1" Cut="0.0000000000000000e+00" cType="1" res="1.2096262536942959e-02" rms="6.4964301884174347e-02" purity="1.0000000000000000e+00" nType="-99"/>
          </Node>
        </Node>
        <Node pos="r" depth="1" NCoef="0" IVar="2" Cut="4.1571430206298828e+01" cType="1" res="-4.7544362023472786e-03" rms="6.0327548533678055e-02" purity="1.0000000000000000e+00" nType="0">
          <Node pos="l" depth="2" NCoef="0" IVar="2" Cut="3.6047618865966797e+01" cType="1" res="-2.4825841188430786e-02" rms="5.7486731559038162e-02" purity="1.0000000000000000e+00" nType="0">
            <Node pos="l" depth="3" NCoef="0" IVar="-1" Cut="0.0000000000000000e+00" cType="1" res="-5.8270014822483063e-02" rms="4.5075137168169022e-02" purity="1.0000000000000000e+00" nType="-99"/>
            <Node pos="r" depth="3" NCoef="0" IVar="-1" Cut="0.0000000000000000e+00" cType="1" res="-1.3561984524130821e-02" rms="6.1911385506391525e-02" purity="1.0000000000000000e+00" nType="-99"/>
          </Node>
          <Node pos="r" depth="2" NCoef="0" IVar="2" Cut="4.8000000000000000e+01" cType="1" res="1.9520302303135395e-03" rms="5.9763353317975998e-02" purity="1.0000000000000000e+00" nType="0">
            <Node pos="l" depth="3" NCoef="0" IVar="-1" Cut="0.0000000000000000e+00" cType="1" res="2.3209068924188614e-02" rms="6.0466613620519638e-02" purity="1.0000000000000000e+00" nType="-99"/>
            <Node pos="r" depth="3" NCoef="0" IVar="-1" Cut="0.0000000000000000e+00" cType="1" res="-3.6766817793250084e-03" rms="5.8633208274841309e-02" purity="1.0000000000000000e+00" nType="-99"/>
          </Node>
        </Node>
      </Node>
    </BinaryTree>
    <BinaryTree type="DecisionTree" boostWeight="1.0000000000000000e+00" itree="20">
      <Node pos="s" depth="0" NCoef="0" IVar="2" Cut="9.0000000000000000e+00" cType="1" res="-3.7225347477942705e-04" rms="6.1939764767885208e-02" purity="1.0000000000000000e+00" nType="0">
        <Node pos="l" depth="1" NCoef="0" IVar="2" Cut="2.2857143878936768e+00" cType="1" res="-1.0079747997224331e-02" rms="6.0160506516695023e-02" purity="1.0000000000000000e+00" nType="0">
          <Node pos="l" depth="2" NCoef="0" IVar="-1" Cut="0.0000000000000000e+00" cType="1" res="1.6867896774783731e-03" rms="6.0711205005645752e-02" purity="1.0000000000000000e+00" nType="-99"/>
          <Node pos="r" depth="2" NCoef="0" IVar="-1" Cut="0.0000000000000000e+00" cType="1" res="-2.5686848908662796e-02" rms="5.8095365762710571e-02" purity="1.0000000000000000e+00" nType="-99"/>
        </Node>
        <Node pos="r" depth="1" NCoef="0" IVar="2" Cut="1.6714284896850586e+01" cType="1" res="1.6412324039265513e-03" rms="6.2112759798765182e-02" purity="1.0000000000000000e+00" nType="0">
          <Node pos="l" depth="2" NCoef="0" IVar="2" Cut="1.2333333015441895e+01" cType="1" res="2.4262277409434319e-02" rms="5.9261847287416458e-02" purity="1.0000000000000000e+00" nType="0">
            <Node pos="l" depth="3" NCoef="0" IVar="-1" Cut="0.0000000000000000e+00" cType="1" res="3.3117230981588364e-02" rms="6.9093286991119385e-02" purity="1.0000000000000000e+00" nType="-99"/>
            <Node pos="r" depth="3" NCoef="0" IVar="-1" Cut="0.0000000000000000e+00" cType="1" res="3.6764655262231827e-02" rms="4.5149322599172592e-02" purity="1.0000000000000000e+00" nType="-99"/>
          </Node>
          <Node pos="r" depth="2" NCoef="0" IVar="2" Cut="2.3571428298950195e+01" cType="1" res="-2.1486731711775064e-03" rms="6.1772756278514862e-02" purity="1.0000000000000000e+00" nType="0">
            <Node pos="l" depth="3" NCoef="0" IVar="-1" Cut="0.0000000000000000e+00" cType="1" res="-3.2023191452026367e-02" rms="5.7410299777984619e-02" purity="1.0000000000000000e+00" nType="-99"/>
            <Node pos="r" depth="3" NCoef="0" IVar="-1" Cut="0.0000000000000000e+00" cType="1" res="2.1473027300089598e-03" rms="6.1790723353624344e-02" purity="1.0000000000000000e+00" nType="-99"/>
          </Node>
        </Node>
      </Node>
    </BinaryTree>
    <BinaryTree type="DecisionTree" boostWeight="1.0000000000000000e+00" itree="21">
      <Node pos="s" depth="0" NCoef="0" IVar="2" Cut="6.0000000000000000e+01" cType="1" res="-1.2699235230684280e-04" rms="5.9335250407457352e-02" purity="1.0000000000000000e+00" nType="0">
        <Node pos="l" depth="1" NCoef="0" IVar="2" Cut="3.9333332061767578e+01" cType="1" res="-1.2108237715438008e-03" rms="5.9114068746566772e-02" purity="1.0000000000000000e+00" nType="0">
          <Node pos="l" depth="2" NCoef="0" IVar="2" Cut="3.3428569793701172e+01" cType="1" res="3.0946594197303057e-03" rms="5.9640035033226013e-02" purity="1.0000000000000000e+00" nType="0">
            <Node pos="l" depth="3" NCoef="0" IVar="-1" Cut="0.0000000000000000e+00" cType="1" res="-9.4921473646536469e-04" rms="6.0596492141485214e-02" purity="1.0000000000000000e+00" nType="-99"/>
            <Node pos="r" depth="3" NCoef="0" IVar="-1" Cut="0.0000000000000000e+00" cType="1" res="3.2109513878822327e-02" rms="4.5512050390243530e-02" purity="1.0000000000000000e+00" nType="-99"/>
          </Node>
          <Node pos="r" depth="2" NCoef="0" IVar="2" Cut="4.6333332061767578e+01" cType="1" res="-1.0151735506951809e-02" rms="5.6976582854986191e-02" purity="1.0000000000000000e+00" nType="0">
            <Node pos="l" depth="3" NCoef="0" IVar="-1" Cut="0.0000000000000000e+00" cType="1" res="-3.5147652029991150e-02" rms="5.7283993810415268e-02" purity="1.0000000000000000e+00" nType="-99"/>
            <Node pos="r" depth="3" NCoef="0" IVar="-1" Cut="0.0000000000000000e+00" cType="1" res="-3.4878023434430361e-03" rms="5.5480804294347763e-02" purity="1.0000000000000000e+00" nType="-99"/>
          </Node>
        </Node>
        <Node pos="r" depth="1" NCoef="0" IVar="-1" Cut="0.0000000000000000e+00" cType="1" res="1.4601445756852627e-02" rms="6.0420732945203781e-02" purity="1.0000000000000000e+00" nType="-99"/>
      </Node>
    </BinaryTree>
    <BinaryTree type="DecisionTree" boostWeight="1.0000000000000000e+00" itree="22">
      <Node pos="s" depth="0" NCoef="0" IVar="2" Cut="5.4000000000000000e+01" cType="1" res="-4.8721001803642139e-05" rms="5.8329138904809952e-02" purity="1.0000000000000000e+00" nType="0">
        <Node pos="l" depth="1" NCoef="0" IVar="2" Cut="4.0380950927734375e+01" cType="1" res="1.5442429576069117e-03" rms="5.8923143893480301e-02" purity="1.0000000000000000e+00" nType="0">
          <Node pos="l" depth="2" NCoef="0" IVar="2" Cut="3.2380950927734375e+01" cType="1" res="-1.9799941219389439e-03" rms="5.9407457709312439e-02" purity="1.0000000000000000e+00" nType="0">
            <Node pos="l" depth="3" NCoef="0" IVar="-1" Cut="0.0000000000000000e+00" cType="1" res="2.9563484713435173e-03" rms="5.9337325394153595e-02" purity="1.0000000000000000e+00" nType="-99"/>
            <Node pos="r" depth="3" NCoef="0" IVar="-1" Cut="0.0000000000000000e+00" cType="1" res="-3.0743094161152840e-02" rms="5.5674839764833450e-02" purity="1.0000000000000000e+00" nType="-99"/>
          </Node>
          <Node pos="r" depth="2" NCoef="0" IVar="2" Cut="4.4428569793701172e+01" cType="1" res="1.3419408351182938e-02" rms="5.5641334503889084e-02" purity="1.0000000000000000e+00" nType="0">
            <Node pos="l" depth="3" NCoef="0" IVar="-1" Cut="0.0000000000000000e+00" cType="1" res="4.3271221220493317e-02" rms="5.2953734993934631e-02" purity="1.0000000000000000e+00" nType="-99"/>
            <Node pos="r" depth="3" NCoef="0" IVar="-1" Cut="0.0000000000000000e+00" cType="1" res="6.7105428315699100e-03" rms="5.5060062557458878e-02" purity="1.0000000000000000e+00" nType="-99"/>
          </Node>
        </Node>
        <Node pos="r" depth="1" NCoef="0" IVar="2" Cut="5.7428569793701172e+01" cType="1" res="-6.7052911035716534e-03" rms="5.5284112691879272e-02" purity="1.0000000000000000e+00" nType="0">
          <Node pos="l" depth="2" NCoef="0" IVar="-1" Cut="0.0000000000000000e+00" cType="1" res="-2.9895938932895660e-02" rms="4.6655256301164627e-02" purity="1.0000000000000000e+00" nType="-99"/>
          <Node pos="r" depth="2" NCoef="0" IVar="5" Cut="1.7633093261718750e+03" cType="1" res="1.2982734479010105e-03" rms="5.7131450623273849e-02" purity="1.0000000000000000e+00" nType="0">
            <Node pos="l" depth="3" NCoef="0" IVar="-1" Cut="0.0000000000000000e+00" cType="1" res="-4.0806268225423992e-04" rms="5.6069456040859222e-02" purity="1.0000000000000000e+00" nType="-99"/>
            <Node pos="r" depth="3" NCoef="0" IVar="-1" Cut="0.0000000000000000e+00" cType="1" res="5.9024076908826828e-03" rms="5.8383140712976456e-02" purity="1.0000000000000000e+00" nType="-99"/>
          </Node>
        </Node>
      </Node>
    </BinaryTree>
    <BinaryTree type="DecisionTree" boostWeight="1.0000000000000000e+00" itree="23">
      <Node pos="s" depth="0" NCoef="0" IVar="2" Cut="1.8000000000000000e+01" cType="1" res="-3.2450453727506101e-04" rms="5.8577511459589005e-02" purity="1.0000000000000000e+00" nType="0">
        <Node pos="l" depth="1" NCoef="0" IVar="2" Cut="1.0523809432983398e+01" cType="1" res="-4.4882595539093018e-03" rms="5.8360658586025238e-02" purity="1.0000000000000000e+00" nType="0">
          <Node pos="l" depth="2" NCoef="0" IVar="2" Cut="3.3333332538604736e+00" cType="1" res="3.5788489039987326e-03" rms="5.8697115629911423e-02" purity="1.0000000000000000e+00" nType="0">
            <Node pos="l" depth="3" NCoef="0" IVar="-1" Cut="0.0000000000000000e+00" cType="1" res="-2.0938729867339134e-02" rms="5.9980601072311401e-02" purity="1.0000000000000000e+00" nType="-99"/>
            <Node pos="r" depth="3" NCoef="0" IVar="-1" Cut="0.0000000000000000e+00" cType="1" res="2.3961186408996582e-02" rms="5.3169786930084229e-02" purity="1.0000000000000000e+00" nType="-99"/>
          </Node>
          <Node pos="r" depth="2" NCoef="0" IVar="-1" Cut="0.0000000000000000e+00" cType="1" res="-2.8021059930324554e-02" rms="5.4254721850156784e-02" purity="1.0000000000000000e+00" nType="-99"/>
        </Node>
        <Node pos="r" depth="1" NCoef="0" IVar="2" Cut="2.4428571701049805e+01" cType="1" res="1.5001917490735650e-03" rms="5.8579098433256149e-02" purity="1.0000000000000000e+00" nType="0">
          <Node pos="l" depth="2" NCoef="0" IVar="-1" Cut="0.0000000000000000e+00" cType="1" res="2.3920083418488503e-02" rms="5.5520411580801010e-02" purity="1.0000000000000000e+00" nType="-99"/>
          <Node pos="r" depth="2" NCoef="0" IVar="2" Cut="3.0428571701049805e+01" cType="1" res="-1.0175354545935988e-03" rms="5.8688685297966003e-02" purity="1.0000000000000000e+00" nType="0">
            <Node pos="l" depth="3" NCoef="0" IVar="-1" Cut="0.0000000000000000e+00" cType="1" res="-3.2163549214601517e-02" rms="5.9059020131826401e-02" purity="1.0000000000000000e+00" nType="-99"/>
            <Node pos="r" depth="3" NCoef="0" IVar="-1" Cut="0.0000000000000000e+00" cType="1" res="3.6666623782366514e-03" rms="5.8066464960575104e-02" purity="1.0000000000000000e+00" nType="-99"/>
          </Node>
        </Node>
      </Node>
    </BinaryTree>
    <BinaryTree type="DecisionTree" boostWeight="1.0000000000000000e+00" itree="24">
      <Node pos="s" depth="0" NCoef="0" IVar="2" Cut="3.0000000000000000e+00" cType="1" res="-2.5536739849485457e-04" rms="5.6807655841112137e-02" purity="1.0000000000000000e+00" nType="0">
        <Node pos="l" depth="1" NCoef="0" IVar="-1" Cut="0.0000000000000000e+00" cType="1" res="1.8939185887575150e-02" rms="5.7088851928710938e-02" purity="1.0000000000000000e+00" nType="-99"/>
        <Node pos="r" depth="1" NCoef="0" IVar="2" Cut="1.1571428298950195e+01" cType="1" res="-1.3512064469978213e-03" rms="5.6647110730409622e-02" purity="1.0000000000000000e+00" nType="0">
          <Node pos="l" depth="2" NCoef="0" IVar="2" Cut="7.1904764175415039e+00" cType="1" res="-1.5714362263679504e-02" rms="5.7123761624097824e-02" purity="1.0000000000000000e+00" nType="0">
            <Node pos="l" depth="3" NCoef="0" IVar="-1" Cut="0.0000000000000000e+00" cType="1" res="-3.0894856899976730e-02" rms="5.2483998239040375e-02" purity="1.0000000000000000e+00" nType="-99"/>
            <Node pos="r" depth="3" NCoef="0" IVar="-1" Cut="0.0000000000000000e+00" cType="1" res="-8.7262364104390144e-03" rms="6.1314124614000320e-02" purity="1.0000000000000000e+00" nType="-99"/>
          </Node>
          <Node pos="r" depth="2" NCoef="0" IVar="2" Cut="1.6857143402099609e+01" cType="1" res="1.2303569819778204e-03" rms="5.6172985583543777e-02" purity="1.0000000000000000e+00" nType="0">
            <Node pos="l" depth="3" NCoef="0" IVar="-1" Cut="0.0000000000000000e+00" cType="1" res="2.9713800176978111e-02" rms="4.3669089674949646e-02" purity="1.0000000000000000e+00" nType="-99"/>
            <Node pos="r" depth="3" NCoef="0" IVar="-1" Cut="0.0000000000000000e+00" cType="1" res="-1.2798159150406718e-03" rms="5.6705180555582047e-02" purity="1.0000000000000000e+00" nType="-99"/>
          </Node>
        </Node>
      </Node>
    </BinaryTree>
    <BinaryTree type="DecisionTree" boostWeight="1.0000000000000000e+00" itree="25">
      <Node pos="s" depth="0" NCoef="0" IVar="2" Cut="6.0000000000000000e+00" cType="1" res="-2.5423802435398102e-04" rms="5.5504862219095230e-02" purity="1.0000000000000000e+00" nType="0">
        <Node pos="l" depth="1" NCoef="0" IVar="2" Cut="1.1904761791229248e+00" cType="1" res="6.3356668688356876e-03" rms="5.5580601096153259e-02" purity="1.0000000000000000e+00" nType="0">
          <Node pos="l" depth="2" NCoef="0" IVar="-1" Cut="0.0000000000000000e+00" cType="1" res="-8.2257315516471863e-03" rms="6.0484126210212708e-02" purity="1.0000000000000000e+00" nType="-99"/>
          <Node pos="r" depth="2" NCoef="0" IVar="-1" Cut="0.0000000000000000e+00" cType="1" res="2.0622635260224342e-02" rms="4.8260308802127838e-02" purity="1.0000000000000000e+00" nType="-99"/>
        </Node>
        <Node pos="r" depth="1" NCoef="0" IVar="2" Cut="2.2285715103149414e+01" cType="1" res="-1.2046386254951358e-03" rms="5.5429324507713318e-02" purity="1.0000000000000000e+00" nType="0">
          <Node pos="l" depth="2" NCoef="0" IVar="2" Cut="1.0571428298950195e+01" cType="1" res="-7.9072397202253342e-03" rms="5.3191360086202621e-02" purity="1.0000000000000000e+00" nType="0">
            <Node pos="l" depth="3" NCoef="0" IVar="-1" Cut="0.0000000000000000e+00" cType="1" res="5.7877679355442524e-03" rms="5.1556102931499481e-02" purity="1.0000000000000000e+00" nType="-99"/>
            <Node pos="r" depth="3" NCoef="0" IVar="-1" Cut="0.0000000000000000e+00" cType="1" res="-1.8997419625520706e-02" rms="5.2902352064847946e-02" purity="1.0000000000000000e+00" nType="-99"/>
          </Node>
          <Node pos="r" depth="2" NCoef="0" IVar="2" Cut="3.2523811340332031e+01" cType="1" res="1.5061211306601763e-03" rms="5.6082136929035187e-02" purity="1.0000000000000000e+00" nType="0">
            <Node pos="l" depth="3" NCoef="0" IVar="-1" Cut="0.0000000000000000e+00" cType="1" res="2.1909285336732864e-02" rms="5.5380564182996750e-02" purity="1.0000000000000000e+00" nType="-99"/>
            <Node pos="r" depth="3" NCoef="0" IVar="-1" Cut="0.0000000000000000e+00" cType="1" res="-2.2151721641421318e-03" rms="5.5707316845655441e-02" purity="1.0000000000000000e+00" nType="-99"/>
          </Node>
        </Node>
      </Node>
    </BinaryTree>
    <BinaryTree type="DecisionTree" boostWeight="1.0000000000000000e+00" itree="26">
      <Node pos="s" depth="0" NCoef="0" IVar="2" Cut="1.2000000000000000e+01" cType="1" res="-2.0288075029384345e-04" rms="5.5419903248548508e-02" purity="1.0000000000000000e+00" nType="0">
        <Node pos="l" depth="1" NCoef="0" IVar="2" Cut="6.2857141494750977e+00" cType="1" res="-5.2573648281395435e-03" rms="5.6010555475950241e-02" purity="1.0000000000000000e+00" nType="0">
          <Node pos="l" depth="2" NCoef="0" IVar="4" Cut="9.2986816406250000e+02" cType="1" res="-3.4162530209869146e-04" rms="5.3624708205461502e-02" purity="1.0000000000000000e+00" nType="0">
            <Node pos="l" depth="3" NCoef="0" IVar="-1" Cut="0.0000000000000000e+00" cType="1" res="2.0680904854089022e-03" rms="5.2952259778976440e-02" purity="1.0000000000000000e+00" nType="-99"/>
            <Node pos="r" depth="3" NCoef="0" IVar="-1" Cut="0.0000000000000000e+00" cType="1" res="-5.8900876902043819e-03" rms="5.4636809974908829e-02" purity="1.0000000000000000e+00" nType="-99"/>
          </Node>
          <Node pos="r" depth="2" NCoef="0" IVar="-1" Cut="0.0000000000000000e+00" cType="1" res="-2.3731170222163200e-02" rms="5.9090480208396912e-02" purity="1.0000000000000000e+00" nType="-99"/>
        </Node>
        <Node pos="r" depth="1" NCoef="0" IVar="2" Cut="1.6857143402099609e+01" cType="1" res="1.2052895035594702e-03" rms="5.5171813815832138e-02" purity="1.0000000000000000e+00" nType="0">
          <Node pos="l" depth="2" NCoef="0" IVar="-1" Cut="0.0000000000000000e+00" cType="1" res="1.8946221098303795e-02" rms="4.5335620641708374e-02" purity="1.0000000000000000e+00" nType="-99"/>
          <Node pos="r" depth="2" NCoef="0" IVar="2" Cut="5.4238094329833984e+01" cType="1" res="-3.6846727016381919e-04" rms="5.5845052003860474e-02" purity="1.0000000000000000e+00" nType="0">
            <Node pos="l" depth="3" NCoef="0" IVar="-1" Cut="0.0000000000000000e+00" cType="1" res="-3.4137915354222059e-03" rms="5.6853506714105606e-02" purity="1.0000000000000000e+00" nType="-99"/>
            <Node pos="r" depth="3" NCoef="0" IVar="-1" Cut="0.0000000000000000e+00" cType="1" res="8.5575496777892113e-03" rms="5.2151460200548172e-02" purity="1.0000000000000000e+00" nType="-99"/>
          </Node>
        </Node>
      </Node>
    </BinaryTree>
    <BinaryTree type="DecisionTree" boostWeight="1.0000000000000000e+00" itree="27">
      <Node pos="s" depth="0" NCoef="0" IVar="2" Cut="5.4000000000000000e+01" cType="1" res="-2.1686093532480299e-04" rms="5.5253069847822189e-02" purity="1.0000000000000000e+00" nType="0">
        <Node pos="l" depth="1" NCoef="0" IVar="2" Cut="1.5142857551574707e+01" cType="1" res="1.3359220465645194e-03" rms="5.5425908416509628e-02" purity="1.0000000000000000e+00" nType="0">
          <Node pos="l" depth="2" NCoef="0" IVar="2" Cut="1.0714285850524902e+01" cType="1" res="-2.7209557592868805e-03" rms="5.3611170500516891e-02" purity="1.0000000000000000e+00" nType="0">
            <Node pos="l" depth="3" NCoef="0" IVar="-1" Cut="0.0000000000000000e+00" cType="1" res="7.5581143610179424e-03" rms="5.3780551999807358e-02" purity="1.0000000000000000e+00" nType="-99"/>
            <Node pos="r" depth="3" NCoef="0" IVar="-1" Cut="0.0000000000000000e+00" cType="1" res="-3.3627558499574661e-02" rms="4.5524358749389648e-02" purity="1.0000000000000000e+00" nType="-99"/>
          </Node>
          <Node pos="r" depth="2" NCoef="0" IVar="2" Cut="2.8333333969116211e+01" cType="1" res="3.4621742088347673e-03" rms="5.6236930191516876e-02" purity="1.0000000000000000e+00" nType="0">
            <Node pos="l" depth="3" NCoef="0" IVar="-1" Cut="0.0000000000000000e+00" cType="1" res="1.1282210238277912e-02" rms="5.4194301366806030e-02" purity="1.0000000000000000e+00" nType="-99"/>
            <Node pos="r" depth="3" NCoef="0" IVar="-1" Cut="0.0000000000000000e+00" cType="1" res="2.2265370935201645e-03" rms="5.7106841355562210e-02" purity="1.0000000000000000e+00" nType="-99"/>
          </Node>
        </Node>
        <Node pos="r" depth="1" NCoef="0" IVar="2" Cut="6.0428569793701172e+01" cType="1" res="-6.7055257968604565e-03" rms="5.4044302552938461e-02" purity="1.0000000000000000e+00" nType="0">
          <Node pos="l" depth="2" NCoef="0" IVar="0" Cut="2.9523809432983398e+01" cType="1" res="-8.5438870883081108e-05" rms="4.9852028489112854e-02" purity="1.0000000000000000e+00" nType="0">
            <Node pos="l" depth="3" NCoef="0" IVar="-1" Cut="0.0000000000000000e+00" cType="1" res="1.6958147753030062e-03" rms="5.0365578383207321e-02" purity="1.0000000000000000e+00" nType="-99"/>
            <Node pos="r" depth="3" NCoef="0" IVar="-1" Cut="0.0000000000000000e+00" cType="1" res="3.4680149838095531e-05" rms="4.9362257122993469e-02" purity="1.0000000000000000e+00" nType="-99"/>
          </Node>
          <Node pos="r" depth="2" NCoef="0" IVar="-1" Cut="0.0000000000000000e+00" cType="1" res="-2.4273535236716270e-02" rms="5.7906005531549454e-02" purity="1.0000000000000000e+00" nType="-99"/>
        </Node>
      </Node>
    </BinaryTree>
    <BinaryTree type="DecisionTree" boostWeight="1.0000000000000000e+00" itree="28">
      <Node pos="s" depth="0" NCoef="0" IVar="2" Cut="2.1000000000000000e+01" cType="1" res="-2.1026797185186297e-04" rms="5.4872930049896240e-02" purity="1.0000000000000000e+00" nType="0">
        <Node pos="l" depth="1" NCoef="0" IVar="2" Cut="4.7619047164916992e+00" cType="1" res="3.5538622178137302e-03" rms="5.3328726440668106e-02" purity="1.0000000000000000e+00" nType="0">
          <Node pos="l" depth="2" NCoef="0" IVar="0" Cut="3.2476188659667969e+01" cType="1" res="-1.3880738057196140e-02" rms="5.2963919937610626e-02" purity="1.0000000000000000e+00" nType="0">
            <Node pos="l" depth="3" NCoef="0" IVar="-1" Cut="0.0000000000000000e+00" cType="1" res="-1.8406964838504791e-02" rms="5.3406141698360443e-02" purity="1.0000000000000000e+00" nType="-99"/>
            <Node pos="r" depth="3" NCoef="0" IVar="-1" Cut="0.0000000000000000e+00" cType="1" res="-2.0991332828998566e-02" rms="5.2455313503742218e-02" purity="1.0000000000000000e+00" nType="-99"/>
          </Node>
          <Node pos="r" depth="2" NCoef="0" IVar="2" Cut="1.1428571701049805e+01" cType="1" res="1.1506370268762112e-02" rms="5.1572754979133606e-02" purity="1.0000000000000000e+00" nType="0">
            <Node pos="l" depth="3" NCoef="0" IVar="-1" Cut="0.0000000000000000e+00" cType="1" res="5.7366141118109226e-03" rms="5.7418283075094223e-02" purity="1.0000000000000000e+00" nType="-99"/>
            <Node pos="r" depth="3" NCoef="0" IVar="-1" Cut="0.0000000000000000e+00" cType="1" res="2.1443985402584076e-02" rms="4.5032754540443420e-02" purity="1.0000000000000000e+00" nType="-99"/>
          </Node>
        </Node>
        <Node pos="r" depth="1" NCoef="0" IVar="2" Cut="2.7000000000000000e+01" cType="1" res="-2.2162350360304117e-03" rms="5.5574331432580948e-02" purity="1.0000000000000000e+00" nType="0">
          <Node pos="l" depth="2" NCoef="0" IVar="-1" Cut="0.0000000000000000e+00" cType="1" res="-3.1922385096549988e-02" rms="4.9053680151700974e-02" purity="1.0000000000000000e+00" nType="-99"/>
          <Node pos="r" depth="2" NCoef="0" IVar="2" Cut="5.4428569793701172e+01" cType="1" res="9.3366170767694712e-04" rms="5.5759694427251816e-02" purity="1.0000000000000000e+00" nType="0">
            <Node pos="l" depth="3" NCoef="0" IVar="-1" Cut="0.0000000000000000e+00" cType="1" res="-1.7013590550050139e-03" rms="5.7920392602682114e-02" purity="1.0000000000000000e+00" nType="-99"/>
            <Node pos="r" depth="3" NCoef="0" IVar="-1" Cut="0.0000000000000000e+00" cType="1" res="8.1897685304284096e-03" rms="5.0217885524034500e-02" purity="1.0000000000000000e+00" nType="-99"/>
          </Node>
        </Node>
      </Node>
    </BinaryTree>
    <BinaryTree type="DecisionTree" boostWeight="1.0000000000000000e+00" itree="29">
      <Node pos="s" depth="0" NCoef="0" IVar="2" Cut="5.4000000000000000e+01" cType="1" res="-1.4076812658458948e-04" rms="5.3683489561080933e-02" purity="1.0000000000000000e+00" nType="0">
        <Node pos="l" depth="1" NCoef="0" IVar="2" Cut="1.0095237731933594e+01" cType="1" res="1.2999479658901691e-03" rms="5.4029639810323715e-02" purity="1.0000000000000000e+00" nType="0">
          <Node pos="l" depth="2" NCoef="0" IVar="2" Cut="4.2857141494750977e+00" cType="1" res="5.9123761020600796e-03" rms="5.1850926131010056e-02" purity="1.0000000000000000e+00" nType="0">
            <Node pos="l" depth="3" NCoef="0" IVar="-1" Cut="0.0000000000000000e+00" cType="1" res="-6.0992966609774157e-05" rms="5.2002813667058945e-02" purity="1.0000000000000000e+00" nType="-99"/>
            <Node pos="r" depth="3" NCoef="0" IVar="-1" Cut="0.0000000000000000e+00" cType="1" res="1.5858612954616547e-02" rms="5.0886973738670349e-02" purity="1.0000000000000000e+00" nType="-99"/>
          </Node>
          <Node pos="r" depth="2" NCoef="0" IVar="2" Cut="1.9000000000000000e+01" cType="1" res="-2.4533973191864789e-04" rms="5.4653193801641464e-02" purity="1.0000000000000000e+00" nType="0">
            <Node pos="l" depth="3" NCoef="0" IVar="-1" Cut="0.0000000000000000e+00" cType="1" res="-1.9358765333890915e-02" rms="4.7528419643640518e-02" purity="1.0000000000000000e+00" nType="-99"/>
            <Node pos="r" depth="3" NCoef="0" IVar="-1" Cut="0.0000000000000000e+00" cType="1" res="5.4640676826238632e-03" rms="5.5610757321119308e-02" purity="1.0000000000000000e+00" nType="-99"/>
          </Node>
        </Node>
        <Node pos="r" depth="1" NCoef="0" IVar="2" Cut="6.1285713195800781e+01" cType="1" res="-6.1611351557075977e-03" rms="5.1780253648757935e-02" purity="1.0000000000000000e+00" nType="0">
          <Node pos="l" depth="2" NCoef="0" IVar="2" Cut="5.8333332061767578e+01" cType="1" res="-1.1761339381337166e-02" rms="4.6713579446077347e-02" purity="1.0000000000000000e+00" nType="0">
            <Node pos="l" depth="3" NCoef="0" IVar="-1" Cut="0.0000000000000000e+00" cType="1" res="-7.4179908260703087e-03" rms="4.7217004001140594e-02" purity="1.0000000000000000e+00" nType="-99"/>
            <Node pos="r" depth="3" NCoef="0" IVar="-1" Cut="0.0000000000000000e+00" cType="1" res="-2.2830966860055923e-02" rms="4.4876534491777420e-02" purity="1.0000000000000000e+00" nType="-99"/>
          </Node>
          <Node pos="r" depth="2" NCoef="0" IVar="-1" Cut="0.0000000000000000e+00" cType="1" res="9.9374977871775627e-03" rms="5.8886397629976273e-02" purity="1.0000000000000000e+00" nType="-99"/>
        </Node>
      </Node>
    </BinaryTree>
    <BinaryTree type="DecisionTree" boostWeight="1.0000000000000000e+00" itree="30">
      <Node pos="s" depth="0" NCoef="0" IVar="2" Cut="1.2000000000000000e+01" cType="1" res="-2.6514122146181762e-04" rms="5.3352359682321548e-02" purity="1.0000000000000000e+00" nType="0">
        <Node pos="l" depth="1" NCoef="0" IVar="2" Cut="5.2380952835083008e+00" cType="1" res="-5.0338297151029110e-03" rms="5.3741391748189926e-02" purity="1.0000000000000000e+00" nType="0">
          <Node pos="l" depth="2" NCoef="0" IVar="2" Cut="1.1904761791229248e+00" cType="1" res="5.4022786207497120e-03" rms="5.1157694309949875e-02" purity="1.0000000000000000e+00" nType="0">
            <Node pos="l" depth="3" NCoef="0" IVar="-1" Cut="0.0000000000000000e+00" cType="1" res="1.2318521738052368e-02" rms="5.7939577847719193e-02" purity="1.0000000000000000e+00" nType="-99"/>
            <Node pos="r" depth="3" NCoef="0" IVar="-1" Cut="0.0000000000000000e+00" cType="1" res="3.8340270984917879e-03" rms="4.3655380606651306e-02" purity="1.0000000000000000e+00" nType="-99"/>
          </Node>
          <Node pos="r" depth="2" NCoef="0" IVar="-1" Cut="0.0000000000000000e+00" cType="1" res="-3.0414372682571411e-02" rms="5.3902775049209595e-02" purity="1.0000000000000000e+00" nType="-99"/>
        </Node>
        <Node pos="r" depth="1" NCoef="0" IVar="2" Cut="1.6857143402099609e+01" cType="1" res="1.0634068166837096e-03" rms="5.3167346864938736e-02" purity="1.0000000000000000e+00" nType="0">
          <Node pos="l" depth="2" NCoef="0" IVar="-1" Cut="0.0000000000000000e+00" cType="1" res="2.4951929226517677e-02" rms="3.9917740970849991e-02" purity="1.0000000000000000e+00" nType="-99"/>
          <Node pos="r" depth="2" NCoef="0" IVar="2" Cut="2.1380952835083008e+01" cType="1" res="-1.1089717736467719e-03" rms="5.3874757140874863e-02" purity="1.0000000000000000e+00" nType="0">
            <Node pos="l" depth="3" NCoef="0" IVar="-1" Cut="0.0000000000000000e+00" cType="1" res="-1.9495073705911636e-02" rms="5.2023276686668396e-02" purity="1.0000000000000000e+00" nType="-99"/>
            <Node pos="r" depth="3" NCoef="0" IVar="-1" Cut="0.0000000000000000e+00" cType="1" res="1.1906366562470794e-03" rms="5.3904674947261810e-02" purity="1.0000000000000000e+00" nType="-99"/>
          </Node>
        </Node>
      </Node>
    </BinaryTree>
    <BinaryTree type="DecisionTree" boostWeight="1.0000000000000000e+00" itree="31">
      <Node pos="s" depth="0" NCoef="0" IVar="2" Cut="3.6000000000000000e+01" cType="1" res="-2.4138342996593565e-04" rms="5.2056495100259781e-02" purity="1.0000000000000000e+00" nType="0">
        <Node pos="l" depth="1" NCoef="0" IVar="2" Cut="3.1666666030883789e+01" cType="1" res="1.7449810402467847e-03" rms="5.1842954009771347e-02" purity="1.0000000000000000e+00" nType="0">
          <Node pos="l" depth="2" NCoef="0" IVar="2" Cut="1.0333333015441895e+01" cType="1" res="-1.1278883175691590e-04" rms="5.0603397190570831e-02" purity="1.0000000000000000e+00" nType="0">
            <Node pos="l" depth="3" NCoef="0" IVar="-1" Cut="0.0000000000000000e+00" cType="1" res="7.2750244289636612e-03" rms="5.0274692475795746e-02" purity="1.0000000000000000e+00" nType="-99"/>
            <Node pos="r" depth="3" NCoef="0" IVar="-1" Cut="0.0000000000000000e+00" cType="1" res="-5.5071581155061722e-03" rms="5.0451274961233139e-02" purity="1.0000000000000000e+00" nType="-99"/>
          </Node>
          <Node pos="r" depth="2" NCoef="0" IVar="-1" Cut="0.0000000000000000e+00" cType="1" res="3.7110649049282074e-02" rms="5.9404127299785614e-02" purity="1.0000000000000000e+00" nType="-99"/>
        </Node>
        <Node pos="r" depth="1" NCoef="0" IVar="2" Cut="5.4000000000000000e+01" cType="1" res="-2.7164663188159466e-03" rms="5.2215721458196640e-02" purity="1.0000000000000000e+00" nType="0">
          <Node pos="l" depth="2" NCoef="0" IVar="2" Cut="3.9238094329833984e+01" cType="1" res="-3.6378169897943735e-03" rms="5.3297560662031174e-02" purity="1.0000000000000000e+00" nType="0">
            <Node pos="l" depth="3" NCoef="0" IVar="-1" Cut="0.0000000000000000e+00" cType="1" res="1.7023673281073570e-02" rms="4.7266501933336258e-02" purity="1.0000000000000000e+00" nType="-99"/>
            <Node pos="r" depth="3" NCoef="0" IVar="-1" Cut="0.0000000000000000e+00" cType="1" res="-1.1992805637419224e-02" rms="5.3840544074773788e-02" purity="1.0000000000000000e+00" nType="-99"/>
          </Node>
          <Node pos="r" depth="2" NCoef="0" IVar="2" Cut="5.7428569793701172e+01" cType="1" res="-1.5134400455281138e-03" rms="5.0743278115987778e-02" purity="1.0000000000000000e+00" nType="0">
            <Node pos="l" depth="3" NCoef="0" IVar="-1" Cut="0.0000000000000000e+00" cType="1" res="-9.4671985134482384e-03" rms="4.9277078360319138e-02" purity="1.0000000000000000e+00" nType="-99"/>
            <Node pos="r" depth="3" NCoef="0" IVar="-1" Cut="0.0000000000000000e+00" cType="1" res="2.9092479962855577e-03" rms="5.1108483225107193e-02" purity="1.0000000000000000e+00" nType="-99"/>
          </Node>
        </Node>
      </Node>
    </BinaryTree>
    <BinaryTree type="DecisionTree" boostWeight="1.0000000000000000e+00" itree="32">
      <Node pos="s" depth="0" NCoef="0" IVar="2" Cut="5.1000000000000000e+01" cType="1" res="-2.1110707893967628e-04" rms="5.1172915846109390e-02" purity="1.0000000000000000e+00" nType="0">
        <Node pos="l" depth="1" NCoef="0" IVar="2" Cut="2.8571428298950195e+01" cType="1" res="-1.6273123910650611e-03" rms="5.1099207252264023e-02" purity="1.0000000000000000e+00" nType="0">
          <Node pos="l" depth="2" NCoef="0" IVar="2" Cut="1.6000000000000000e+01" cType="1" res="2.6907594874501228e-03" rms="5.0056640058755875e-02" purity="1.0000000000000000e+00" nType="0">
            <Node pos="l" depth="3" NCoef="0" IVar="-1" Cut="0.0000000000000000e+00" cType="1" res="-5.6078229099512100e-03" rms="4.9846053123474121e-02" purity="1.0000000000000000e+00" nType="-99"/>
            <Node pos="r" depth="3" NCoef="0" IVar="-1" Cut="0.0000000000000000e+00" cType="1" res="1.7451059073209763e-02" rms="4.8563830554485321e-02" purity="1.0000000000000000e+00" nType="-99"/>
          </Node>
          <Node pos="r" depth="2" NCoef="0" IVar="2" Cut="4.2000000000000000e+01" cType="1" res="-8.0795669928193092e-03" rms="5.1954038441181183e-02" purity="1.0000000000000000e+00" nType="0">
            <Node pos="l" depth="3" NCoef="0" IVar="-1" Cut="0.0000000000000000e+00" cType="1" res="-2.0298827439546585e-02" rms="5.0530858337879181e-02" purity="1.0000000000000000e+00" nType="-99"/>
            <Node pos="r" depth="3" NCoef="0" IVar="-1" Cut="0.0000000000000000e+00" cType="1" res="2.6608112966641784e-04" rms="5.2789341658353806e-02" purity="1.0000000000000000e+00" nType="-99"/>
          </Node>
        </Node>
        <Node pos="r" depth="1" NCoef="0" IVar="2" Cut="6.0142856597900391e+01" cType="1" res="4.3911463581025600e-03" rms="5.1141634583473206e-02" purity="1.0000000000000000e+00" nType="0">
          <Node pos="l" depth="2" NCoef="0" IVar="2" Cut="5.4428569793701172e+01" cType="1" res="1.1235541664063931e-02" rms="4.8687767237424850e-02" purity="1.0000000000000000e+00" nType="0">
            <Node pos="l" depth="3" NCoef="0" IVar="-1" Cut="0.0000000000000000e+00" cType="1" res="3.5455210600048304e-03" rms="5.9560306370258331e-02" purity="1.0000000000000000e+00" nType="-99"/>
            <Node pos="r" depth="3" NCoef="0" IVar="-1" Cut="0.0000000000000000e+00" cType="1" res="1.9640596583485603e-02" rms="3.9071291685104370e-02" purity="1.0000000000000000e+00" nType="-99"/>
          </Node>
          <Node pos="r" depth="2" NCoef="0" IVar="-1" Cut="0.0000000000000000e+00" cType="1" res="-1.1881252750754356e-02" rms="5.3103797137737274e-02" purity="1.0000000000000000e+00" nType="-99"/>
        </Node>
      </Node>
    </BinaryTree>
    <BinaryTree type="DecisionTree" boostWeight="1.0000000000000000e+00" itree="33">
      <Node pos="s" depth="0" NCoef="0" IVar="2" Cut="5.4000000000000000e+01" cType="1" res="-1.7407006816938519e-04" rms="5.0626479089260101e-02" purity="1.0000000000000000e+00" nType="0">
        <Node pos="l" depth="1" NCoef="0" IVar="2" Cut="3.0285715103149414e+01" cType="1" res="1.2112952535971999e-03" rms="5.1017638295888901e-02" purity="1.0000000000000000e+00" nType="0">
          <Node pos="l" depth="2" NCoef="0" IVar="2" Cut="2.4285715103149414e+01" cType="1" res="-1.5836466336622834e-03" rms="4.9929890781641006e-02" purity="1.0000000000000000e+00" nType="0">
            <Node pos="l" depth="3" NCoef="0" IVar="-1" Cut="0.0000000000000000e+00" cType="1" res="4.0830534999258816e-04" rms="4.8924591392278671e-02" purity="1.0000000000000000e+00" nType="-99"/>
            <Node pos="r" depth="3" NCoef="0" IVar="-1" Cut="0.0000000000000000e+00" cType="1" res="-1.8558213487267494e-02" rms="5.3617645055055618e-02" purity="1.0000000000000000e+00" nType="-99"/>
          </Node>
          <Node pos="r" depth="2" NCoef="0" IVar="2" Cut="3.9380950927734375e+01" cType="1" res="5.4336027242243290e-03" rms="5.2335966378450394e-02" purity="1.0000000000000000e+00" nType="0">
            <Node pos="l" depth="3" NCoef="0" IVar="-1" Cut="0.0000000000000000e+00" cType="1" res="1.9307460635900497e-02" rms="4.9686685204505920e-02" purity="1.0000000000000000e+00" nType="-99"/>
            <Node pos="r" depth="3" NCoef="0" IVar="-1" Cut="0.0000000000000000e+00" cType="1" res="1.2144017964601517e-03" rms="5.3299866616725922e-02" purity="1.0000000000000000e+00" nType="-99"/>
          </Node>
        </Node>
        <Node pos="r" depth="1" NCoef="0" IVar="2" Cut="5.9142856597900391e+01" cType="1" res="-5.9631410986185074e-03" rms="4.8532094806432724e-02" purity="1.0000000000000000e+00" nType="0">
          <Node pos="l" depth="2" NCoef="0" IVar="-1" Cut="0.0000000000000000e+00" cType="1" res="-2.0470071583986282e-02" rms="4.3052699416875839e-02" purity="1.0000000000000000e+00" nType="-99"/>
          <Node pos="r" depth="2" NCoef="0" IVar="-1" Cut="0.0000000000000000e+00" cType="1" res="6.1906883493065834e-03" rms="5.1211316138505936e-02" purity="1.0000000000000000e+00" nType="-99"/>
        </Node>
      </Node>
    </BinaryTree>
    <BinaryTree type="DecisionTree" boostWeight="1.0000000000000000e+00" itree="34">
      <Node pos="s" depth="0" NCoef="0" IVar="2" Cut="5.1000000000000000e+01" cType="1" res="-1.3876853336114436e-04" rms="5.0205055624246597e-02" purity="1.0000000000000000e+00" nType="0">
        <Node pos="l" depth="1" NCoef="0" IVar="2" Cut="2.8571428298950195e+01" cType="1" res="-1.3828718801960349e-03" rms="5.0290390849113464e-02" purity="1.0000000000000000e+00" nType="0">
          <Node pos="l" depth="2" NCoef="0" IVar="2" Cut="2.4000000000000000e+01" cType="1" res="1.2135684955865145e-03" rms="4.9271821975708008e-02" purity="1.0000000000000000e+00" nType="0">
            <Node pos="l" depth="3" NCoef="0" IVar="-1" Cut="0.0000000000000000e+00" cType="1" res="-1.9206635188311338e-03" rms="4.8597246408462524e-02" purity="1.0000000000000000e+00" nType="-99"/>
            <Node pos="r" depth="3" NCoef="0" IVar="-1" Cut="0.0000000000000000e+00" cType="1" res="2.4369182065129280e-02" rms="5.0531599670648575e-02" purity="1.0000000000000000e+00" nType="-99"/>
          </Node>
          <Node pos="r" depth="2" NCoef="0" IVar="2" Cut="4.1000000000000000e+01" cType="1" res="-5.2625881507992744e-03" rms="5.1531840115785599e-02" purity="1.0000000000000000e+00" nType="0">
            <Node pos="l" depth="3" NCoef="0" IVar="-1" Cut="0.0000000000000000e+00" cType="1" res="-1.4188513159751892e-02" rms="5.1686685532331467e-02" purity="1.0000000000000000e+00" nType="-99"/>
            <Node pos="r" depth="3" NCoef="0" IVar="-1" Cut="0.0000000000000000e+00" cType="1" res="-9.9541990493889898e-05" rms="5.0878267735242844e-02" purity="1.0000000000000000e+00" nType="-99"/>
          </Node>
        </Node>
        <Node pos="r" depth="1" NCoef="0" IVar="2" Cut="5.8428569793701172e+01" cType="1" res="3.9042036514729261e-03" rms="4.9712199717760086e-02" purity="1.0000000000000000e+00" nType="0">
          <Node pos="l" depth="2" NCoef="0" IVar="2" Cut="5.4333332061767578e+01" cType="1" res="1.1250604875385761e-02" rms="4.8787742853164673e-02" purity="1.0000000000000000e+00" nType="0">
            <Node pos="l" depth="3" NCoef="0" IVar="-1" Cut="0.0000000000000000e+00" cType="1" res="-9.9005771335214376e-04" rms="5.8246921747922897e-02" purity="1.0000000000000000e+00" nType="-99"/>
            <Node pos="r" depth="3" NCoef="0" IVar="-1" Cut="0.0000000000000000e+00" cType="1" res="2.4498172104358673e-02" rms="3.3562086522579193e-02" purity="1.0000000000000000e+00" nType="-99"/>
          </Node>
          <Node pos="r" depth="2" NCoef="0" IVar="2" Cut="6.1095237731933594e+01" cType="1" res="-3.6335403565317392e-03" rms="4.9523130059242249e-02" purity="1.0000000000000000e+00" nType="0">
            <Node pos="l" depth="3" NCoef="0" IVar="-1" Cut="0.0000000000000000e+00" cType="1" res="-9.1827362775802612e-03" rms="3.9158999919891357e-02" purity="1.0000000000000000e+00" nType="-99"/>
            <Node pos="r" depth="3" NCoef="0" IVar="-1" Cut="0.0000000000000000e+00" cType="1" res="1.8302291864529252e-03" rms="5.5885456502437592e-02" purity="1.0000000000000000e+00" nType="-99"/>
          </Node>
        </Node>
      </Node>
    </BinaryTree>
    <BinaryTree type="DecisionTree" boostWeight="1.0000000000000000e+00" itree="35">
      <Node pos="s" depth="0" NCoef="0" IVar="2" Cut="5.4000000000000000e+01" cType="1" res="-1.8626023666001856e-04" rms="4.9476765096187592e-02" purity="1.0000000000000000e+00" nType="0">
        <Node pos="l" depth="1" NCoef="0" IVar="2" Cut="4.5428569793701172e+01" cType="1" res="1.2095907004550099e-03" rms="5.0003349781036377e-02" purity="1.0000000000000000e+00" nType="0">
          <Node pos="l" depth="2" NCoef="0" IVar="2" Cut="1.0714285850524902e+01" cType="1" res="7.1651738835498691e-05" rms="4.9745477735996246e-02" purity="1.0000000000000000e+00" nType="0">
            <Node pos="l" depth="3" NCoef="0" IVar="-1" Cut="0.0000000000000000e+00" cType="1" res="6.9526862353086472e-03" rms="4.8709124326705933e-02" purity="1.0000000000000000e+00" nType="-99"/>
            <Node pos="r" depth="3" NCoef="0" IVar="-1" Cut="0.0000000000000000e+00" cType="1" res="-2.6507778093218803e-03" rms="5.0011534243822098e-02" purity="1.0000000000000000e+00" nType="-99"/>
          </Node>
          <Node pos="r" depth="2" NCoef="0" IVar="5" Cut="1.4454969482421875e+03" cType="1" res="8.2285795360803604e-03" rms="5.1007270812988281e-02" purity="1.0000000000000000e+00" nType="0">
            <Node pos="l" depth="3" NCoef="0" IVar="-1" Cut="0.0000000000000000e+00" cType="1" res="9.8787136375904083e-03" rms="5.1029004156589508e-02" purity="1.0000000000000000e+00" nType="-99"/>
            <Node pos="r" depth="3" NCoef="0" IVar="-1" Cut="0.0000000000000000e+00" cType="1" res="1.3968322426080704e-02" rms="5.0964120775461197e-02" purity="1.0000000000000000e+00" nType="-99"/>
          </Node>
        </Node>
        <Node pos="r" depth="1" NCoef="0" IVar="2" Cut="5.9142856597900391e+01" cType="1" res="-6.0191475786268711e-03" rms="4.6764120459556580e-02" purity="1.0000000000000000e+00" nType="0">
          <Node pos="l" depth="2" NCoef="0" IVar="-1" Cut="0.0000000000000000e+00" cType="1" res="-1.7186017706990242e-02" rms="4.0933083742856979e-02" purity="1.0000000000000000e+00" nType="-99"/>
          <Node pos="r" depth="2" NCoef="0" IVar="-1" Cut="0.0000000000000000e+00" cType="1" res="3.6759714130312204e-03" rms="5.0325497984886169e-02" purity="1.0000000000000000e+00" nType="-99"/>
        </Node>
      </Node>
    </BinaryTree>
    <BinaryTree type="DecisionTree" boostWeight="1.0000000000000000e+00" itree="36">
      <Node pos="s" depth="0" NCoef="0" IVar="2" Cut="1.2000000000000000e+01" cType="1" res="-1.8141067994292825e-04" rms="4.9738489091396332e-02" purity="1.0000000000000000e+00" nType="0">
        <Node pos="l" depth="1" NCoef="0" IVar="2" Cut="7.3333334922790527e+00" cType="1" res="-4.7043017111718655e-03" rms="5.0900124013423920e-02" purity="1.0000000000000000e+00" nType="0">
          <Node pos="l" depth="2" NCoef="0" IVar="2" Cut="2.3333332538604736e+00" cType="1" res="-8.6920494213700294e-03" rms="4.7491420060396194e-02" purity="1.0000000000000000e+00" nType="0">
            <Node pos="l" depth="3" NCoef="0" IVar="-1" Cut="0.0000000000000000e+00" cType="1" res="-4.8443507403135300e-03" rms="5.2211709320545197e-02" purity="1.0000000000000000e+00" nType="-99"/>
            <Node pos="r" depth="3" NCoef="0" IVar="-1" Cut="0.0000000000000000e+00" cType="1" res="-1.6872871667146683e-02" rms="4.1605599224567413e-02" purity="1.0000000000000000e+00" nType="-99"/>
          </Node>
          <Node pos="r" depth="2" NCoef="0" IVar="-1" Cut="0.0000000000000000e+00" cType="1" res="1.3140456750988960e-02" rms="5.7415552437305450e-02" purity="1.0000000000000000e+00" nType="-99"/>
        </Node>
        <Node pos="r" depth="1" NCoef="0" IVar="2" Cut="1.6857143402099609e+01" cType="1" res="1.0786587372422218e-03" rms="4.9336202442646027e-02" purity="1.0000000000000000e+00" nType="0">
          <Node pos="l" depth="2" NCoef="0" IVar="-1" Cut="0.0000000000000000e+00" cType="1" res="1.1103968136012554e-02" rms="3.9500206708908081e-02" purity="1.0000000000000000e+00" nType="-99"/>
          <Node pos="r" depth="2" NCoef="0" IVar="2" Cut="5.4238094329833984e+01" cType="1" res="1.6919197514653206e-04" rms="5.0147436559200287e-02" purity="1.0000000000000000e+00" nType="0">
            <Node pos="l" depth="3" NCoef="0" IVar="-1" Cut="0.0000000000000000e+00" cType="1" res="-2.2135558538138866e-03" rms="5.1670238375663757e-02" purity="1.0000000000000000e+00" nType="-99"/>
            <Node pos="r" depth="3" NCoef="0" IVar="-1" Cut="0.0000000000000000e+00" cType="1" res="7.2323265485465527e-03" rms="4.4867023825645447e-02" purity="1.0000000000000000e+00" nType="-99"/>
          </Node>
        </Node>
      </Node>
    </BinaryTree>
    <BinaryTree type="DecisionTree" boostWeight="1.0000000000000000e+00" itree="37">
      <Node pos="s" depth="0" NCoef="0" IVar="2" Cut="4.8000000000000000e+01" cType="1" res="-1.4692284457851201e-04" rms="4.8927254974842072e-02" purity="1.0000000000000000e+00" nType="0">
        <Node pos="l" depth="1" NCoef="0" IVar="2" Cut="2.9095237731933594e+01" cType="1" res="1.8231255235150456e-03" rms="4.9091603606939316e-02" purity="1.0000000000000000e+00" nType="0">
          <Node pos="l" depth="2" NCoef="0" IVar="2" Cut="2.0714284896850586e+01" cType="1" res="-1.5212837606668472e-03" rms="4.8142872750759125e-02" purity="1.0000000000000000e+00" nType="0">
            <Node pos="l" depth="3" NCoef="0" IVar="-1" Cut="0.0000000000000000e+00" cType="1" res="1.9227180164307356e-03" rms="4.7193307429552078e-02" purity="1.0000000000000000e+00" nType="-99"/>
            <Node pos="r" depth="3" NCoef="0" IVar="-1" Cut="0.0000000000000000e+00" cType="1" res="-1.5501886606216431e-02" rms="4.9719806760549545e-02" purity="1.0000000000000000e+00" nType="-99"/>
          </Node>
          <Node pos="r" depth="2" NCoef="0" IVar="2" Cut="3.9714286804199219e+01" cType="1" res="8.0928271636366844e-03" rms="5.0225950777530670e-02" purity="1.0000000000000000e+00" nType="0">
            <Node pos="l" depth="3" NCoef="0" IVar="-1" Cut="0.0000000000000000e+00" cType="1" res="2.3099733516573906e-02" rms="4.7569897025823593e-02" purity="1.0000000000000000e+00" nType="-99"/>
            <Node pos="r" depth="3" NCoef="0" IVar="-1" Cut="0.0000000000000000e+00" cType="1" res="-1.0386009234935045e-03" rms="5.1661808043718338e-02" purity="1.0000000000000000e+00" nType="-99"/>
          </Node>
        </Node>
        <Node pos="r" depth="1" NCoef="0" IVar="2" Cut="5.2285713195800781e+01" cType="1" res="-5.2979011088609695e-03" rms="4.8115242272615433e-02" purity="1.0000000000000000e+00" nType="0">
          <Node pos="l" depth="2" NCoef="0" IVar="-1" Cut="0.0000000000000000e+00" cType="1" res="-2.4136608466506004e-02" rms="4.7031652182340622e-02" purity="1.0000000000000000e+00" nType="-99"/>
          <Node pos="r" depth="2" NCoef="0" IVar="2" Cut="6.0142856597900391e+01" cType="1" res="-1.4022042741999030e-03" rms="4.7836314886808395e-02" purity="1.0000000000000000e+00" nType="0">
            <Node pos="l" depth="3" NCoef="0" IVar="-1" Cut="0.0000000000000000e+00" cType="1" res="6.2060481868684292e-03" rms="4.4944789260625839e-02" purity="1.0000000000000000e+00" nType="-99"/>
            <Node pos="r" depth="3" NCoef="0" IVar="-1" Cut="0.0000000000000000e+00" cType="1" res="-1.5161095187067986e-02" rms="5.0616107881069183e-02" purity="1.0000000000000000e+00" nType="-99"/>
          </Node>
        </Node>
      </Node>
    </BinaryTree>
    <BinaryTree type="DecisionTree" boostWeight="1.0000000000000000e+00" itree="38">
      <Node pos="s" depth="0" NCoef="0" IVar="2" Cut="3.3000000000000000e+01" cType="1" res="-7.4724877777043730e-05" rms="4.7214712947607040e-02" purity="1.0000000000000000e+00" nType="0">
